0.000000000000000000e+00,0.000000000000000000e+00,0.000000000000000000e+00,0.000000000000000000e+00,0.000000000000000000e+00,0.000000000000000000e+00,0.000000000000000000e+00,0.000000000000000000e+00,0.000000000000000000e+00,0.000000000000000000e+00
0.000000000000000000e+00,0.000000000000000000e+00,0.000000000000000000e+00,0.000000000000000000e+00,0.000000000000000000e+00,0.000000000000000000e+00,0.000000000000000000e+00,0.000000000000000000e+00,0.000000000000000000e+00,0.000000000000000000e+00
0.000000000000000000e+00,0.000000000000000000e+00,0.000000000000000000e+00,0.000000000000000000e+00,0.000000000000000000e+00,0.000000000000000000e+00,0.000000000000000000e+00,0.000000000000000000e+00,0.000000000000000000e+00,0.000000000000000000e+00
0.000000000000000000e+00,0.000000000000000000e+00,0.000000000000000000e+00,0.000000000000000000e+00,0.000000000000000000e+00,0.000000000000000000e+00,0.000000000000000000e+00,0.000000000000000000e+00,0.000000000000000000e+00,0.000000000000000000e+00
0.000000000000000000e+00,0.000000000000000000e+00,0.000000000000000000e+00,0.000000000000000000e+00,0.000000000000000000e+00,0.000000000000000000e+00,0.000000000000000000e+00,0.000000000000000000e+00,0.000000000000000000e+00,0.000000000000000000e+00
0.000000000000000000e+00,0.000000000000000000e+00,0.000000000000000000e+00,0.000000000000000000e+00,0.000000000000000000e+00,0.000000000000000000e+00,0.000000000000000000e+00,0.000000000000000000e+00,0.000000000000000000e+00,0.000000000000000000e+00
0.000000000000000000e+00,0.000000000000000000e+00,0.000000000000000000e+00,0.000000000000000000e+00,0.000000000000000000e+00,0.000000000000000000e+00,0.000000000000000000e+00,0.000000000000000000e+00,0.000000000000000000e+00,0.000000000000000000e+00
0.000000000000000000e+00,0.000000000000000000e+00,0.000000000000000000e+00,0.000000000000000000e+00,0.000000000000000000e+00,0.000000000000000000e+00,0.000000000000000000e+00,0.000000000000000000e+00,0.000000000000000000e+00,0.000000000000000000e+00
0.000000000000000000e+00,0.000000000000000000e+00,0.000000000000000000e+00,0.000000000000000000e+00,0.000000000000000000e+00,0.000000000000000000e+00,0.000000000000000000e+00,0.000000000000000000e+00,0.000000000000000000e+00,0.000000000000000000e+00
0.000000000000000000e+00,0.000000000000000000e+00,0.000000000000000000e+00,0.000000000000000000e+00,0.000000000000000000e+00,0.000000000000000000e+00,0.000000000000000000e+00,0.000000000000000000e+00,0.000000000000000000e+00,0.000000000000000000e+00
0.000000000000000000e+00,0.000000000000000000e+00,0.000000000000000000e+00,0.000000000000000000e+00,0.000000000000000000e+00,0.000000000000000000e+00,0.000000000000000000e+00,0.000000000000000000e+00,0.000000000000000000e+00,0.000000000000000000e+00
0.000000000000000000e+00,0.000000000000000000e+00,0.000000000000000000e+00,0.000000000000000000e+00,0.000000000000000000e+00,0.000000000000000000e+00,0.000000000000000000e+00,0.000000000000000000e+00,0.000000000000000000e+00,0.000000000000000000e+00
-1.391207775215619672e-08,-1.885382737059553167e-08,-6.239839331579816298e-07,-9.099054962398164612e-08,-5.452337516777363230e-06,-9.566439123791690825e-08,7.266241157124388584e-06,-2.156687929074830917e-08,-2.262823606583315261e-07,-7.226496212552983548e-07
-6.020257223058445302e-08,-5.694168160319938144e-08,-5.260317021894910502e-07,-2.221980508966620220e-07,-1.236080774104248072e-05,-2.198951355051003161e-07,1.570294600779085069e-05,-7.265206704544743286e-08,-5.359294688535610148e-07,-1.648287588424320980e-06
-3.309483993672177651e-08,-1.742469308000575615e-08,9.350685813963237603e-07,-2.555022422706589143e-08,-4.696817036368185252e-07,-1.159892318079260198e-08,-2.310374699442486260e-07,-2.829654141424438227e-08,-4.501213965340806552e-08,-7.337204632301754796e-08
-1.378951664030071333e-09,-7.260288783335710358e-10,3.896119089151348781e-08,-1.064592676127749061e-09,-1.957007098486748708e-08,-4.832884658663573129e-10,-9.626561247677011194e-09,-1.179022558926851191e-09,-1.875505818891998456e-09,-3.057168596792398383e-09
0.000000000000000000e+00,0.000000000000000000e+00,0.000000000000000000e+00,0.000000000000000000e+00,0.000000000000000000e+00,0.000000000000000000e+00,0.000000000000000000e+00,0.000000000000000000e+00,0.000000000000000000e+00,0.000000000000000000e+00
0.000000000000000000e+00,0.000000000000000000e+00,0.000000000000000000e+00,0.000000000000000000e+00,0.000000000000000000e+00,0.000000000000000000e+00,0.000000000000000000e+00,0.000000000000000000e+00,0.000000000000000000e+00,0.000000000000000000e+00
0.000000000000000000e+00,0.000000000000000000e+00,0.000000000000000000e+00,0.000000000000000000e+00,0.000000000000000000e+00,0.000000000000000000e+00,0.000000000000000000e+00,0.000000000000000000e+00,0.000000000000000000e+00,0.000000000000000000e+00
0.000000000000000000e+00,0.000000000000000000e+00,0.000000000000000000e+00,0.000000000000000000e+00,0.000000000000000000e+00,0.000000000000000000e+00,0.000000000000000000e+00,0.000000000000000000e+00,0.000000000000000000e+00,0.000000000000000000e+00
0.000000000000000000e+00,0.000000000000000000e+00,0.000000000000000000e+00,0.000000000000000000e+00,0.000000000000000000e+00,0.000000000000000000e+00,0.000000000000000000e+00,0.000000000000000000e+00,0.000000000000000000e+00,0.000000000000000000e+00
0.000000000000000000e+00,0.000000000000000000e+00,0.000000000000000000e+00,0.000000000000000000e+00,0.000000000000000000e+00,0.000000000000000000e+00,0.000000000000000000e+00,0.000000000000000000e+00,0.000000000000000000e+00,0.000000000000000000e+00
0.000000000000000000e+00,0.000000000000000000e+00,0.000000000000000000e+00,0.000000000000000000e+00,0.000000000000000000e+00,0.000000000000000000e+00,0.000000000000000000e+00,0.000000000000000000e+00,0.000000000000000000e+00,0.000000000000000000e+00
0.000000000000000000e+00,0.000000000000000000e+00,0.000000000000000000e+00,0.000000000000000000e+00,0.000000000000000000e+00,0.000000000000000000e+00,0.000000000000000000e+00,0.000000000000000000e+00,0.000000000000000000e+00,0.000000000000000000e+00
0.000000000000000000e+00,0.000000000000000000e+00,0.000000000000000000e+00,0.000000000000000000e+00,0.000000000000000000e+00,0.000000000000000000e+00,0.000000000000000000e+00,0.000000000000000000e+00,0.000000000000000000e+00,0.000000000000000000e+00
0.000000000000000000e+00,0.000000000000000000e+00,0.000000000000000000e+00,0.000000000000000000e+00,0.000000000000000000e+00,0.000000000000000000e+00,0.000000000000000000e+00,0.000000000000000000e+00,0.000000000000000000e+00,0.000000000000000000e+00
0.000000000000000000e+00,0.000000000000000000e+00,0.000000000000000000e+00,0.000000000000000000e+00,0.000000000000000000e+00,0.000000000000000000e+00,0.000000000000000000e+00,0.000000000000000000e+00,0.000000000000000000e+00,0.000000000000000000e+00
0.000000000000000000e+00,0.000000000000000000e+00,0.000000000000000000e+00,0.000000000000000000e+00,0.000000000000000000e+00,0.000000000000000000e+00,0.000000000000000000e+00,0.000000000000000000e+00,0.000000000000000000e+00,0.000000000000000000e+00
0.000000000000000000e+00,0.000000000000000000e+00,0.000000000000000000e+00,0.000000000000000000e+00,0.000000000000000000e+00,0.000000000000000000e+00,0.000000000000000000e+00,0.000000000000000000e+00,0.000000000000000000e+00,0.000000000000000000e+00
0.000000000000000000e+00,0.000000000000000000e+00,0.000000000000000000e+00,0.000000000000000000e+00,0.000000000000000000e+00,0.000000000000000000e+00,0.000000000000000000e+00,0.000000000000000000e+00,0.000000000000000000e+00,0.000000000000000000e+00
0.000000000000000000e+00,0.000000000000000000e+00,0.000000000000000000e+00,0.000000000000000000e+00,0.000000000000000000e+00,0.000000000000000000e+00,0.000000000000000000e+00,0.000000000000000000e+00,0.000000000000000000e+00,0.000000000000000000e+00
0.000000000000000000e+00,0.000000000000000000e+00,0.000000000000000000e+00,0.000000000000000000e+00,0.000000000000000000e+00,0.000000000000000000e+00,0.000000000000000000e+00,0.000000000000000000e+00,0.000000000000000000e+00,0.000000000000000000e+00
-1.767057795962824478e-09,-9.895672862261016245e-10,-2.220841440783346243e-08,-7.314893768070353273e-10,-6.159588475032681901e-08,-1.628252315240513011e-09,9.884464782828252234e-08,-1.127594310360925784e-09,-2.753426896973384931e-09,-6.042960688551381712e-09
-6.148877618555645575e-09,-3.133723658311556016e-09,-7.048663154667089447e-08,-2.532778008378451418e-09,-3.596037880375044952e-07,-5.167034178968847093e-09,4.807360010591016722e-07,-5.061937973486469347e-09,-8.547681232760196131e-09,-2.005354880446536964e-08
-7.297948309749215517e-08,-1.695903020526708534e-08,-7.080618161455336262e-07,-4.535573740759666623e-08,-2.616611123938361347e-05,-5.787528335700796407e-08,2.754940659843651974e-05,-1.527382437717032457e-07,-4.033921895544626063e-08,-2.889865461128618063e-07
-2.159609358890993164e-07,-1.613485979052263259e-07,-2.713756555232445977e-06,-1.254123372967836851e-07,-6.157332496746348977e-05,-1.363419258434905067e-07,6.662917778056460431e-05,-7.068909472212930151e-07,-2.219914562257924930e-07,-7.741500574869530229e-07
-6.157495017755909934e-07,-5.013286168667963131e-06,-5.642774766950124209e-06,-5.420696227560800198e-07,-6.261923374902377665e-05,-3.190096227461224193e-07,8.174023974706116588e-05,-3.234600942379235016e-06,-1.979808332547701062e-06,-1.773707040214632195e-06
-9.946808999231789220e-07,-4.219028153933215715e-06,-1.325747513695073787e-05,-5.995965737385061148e-07,-3.513999584836067342e-05,-3.835609467705825247e-07,6.107301284927869152e-05,-2.361331007914866399e-06,-2.367917803027745108e-06,-1.749426478659244735e-06
-3.018338937003307739e-06,-3.010744978725864174e-06,-1.353720207481434792e-05,-7.479833253522705698e-07,-6.408246163374131156e-05,-9.797225032323268583e-07,9.393942184910058309e-05,-2.090037100306356791e-06,-2.805936426433834073e-06,-3.666994869491000987e-06
1.282033697705646034e-05,-1.935157476908912967e-06,-2.046624098956957477e-05,-1.072203950770919640e-06,-9.645122602047119412e-05,-1.287645377670788186e-06,1.316687482005340676e-04,-9.462208975226927602e-06,-3.688652893640228634e-06,-1.012574949333207435e-05
3.011240980727694885e-05,-1.599968791056232302e-06,-2.749717102364985675e-05,-1.840173220543852565e-06,-1.598049852000038432e-04,-5.419007032864465107e-06,2.042166046448896694e-04,-1.778572345277767511e-05,-3.743132494786796334e-06,-1.663885323648364590e-05
1.197625036548906608e-05,-1.291457095869753913e-06,-1.905843423183691229e-05,-1.529050024266607939e-06,-1.004317539239054979e-04,-5.386235349046796451e-06,1.356057176841517589e-04,-6.599148851227210999e-06,-3.942062409726681669e-06,-9.343826163761294098e-06
-3.426895332134237962e-06,2.076035707112259968e-05,-3.273197487462158273e-06,-5.676051823794632951e-06,-4.774542461333856045e-05,-3.639218084623848008e-06,5.522220131885308874e-05,-1.441940970554391407e-06,-5.586313108576724296e-06,-5.193516969491194780e-06
9.807392050721191876e-06,3.139380550088540953e-05,3.332760258706187427e-05,-7.246396336410744944e-06,-1.020521534589707960e-04,-3.959798333987586593e-06,6.119831950379662176e-05,-2.526553487748538287e-06,-5.549318316891035795e-06,-1.439289970845624761e-05
3.236583684627476417e-05,-5.675434601200606578e-06,9.979499831740536002e-05,-3.377009310747879397e-06,-1.088067772069131002e-04,-3.466019146164915762e-06,2.960953684915329788e-05,-4.089893643767418127e-06,-8.719995515531023887e-06,-2.763524258850842309e-05
1.478133652603805209e-05,-4.547270832451311576e-06,1.074351574741035885e-05,-1.389220990156603779e-06,-4.282794660119970952e-05,-2.453730418008413919e-06,4.940133330225893106e-05,-2.014859182016641578e-06,-5.909692505409203054e-06,-1.578346504646543550e-05
-2.071868382838883528e-06,-7.936390853985170582e-07,-1.672892993478137391e-05,-4.914266929702485188e-07,-2.124415239552901192e-05,-3.170379840313416054e-06,5.227999373066745430e-05,-7.201683684925404790e-07,-3.295420868608522581e-06,-3.764008161734963017e-06
-1.678844367213958646e-06,-5.145358260219840519e-07,-1.564515586327270758e-05,-4.739122636833574786e-07,-2.525543270430493408e-05,-3.069963654066213322e-06,5.261824750402801815e-05,-6.503522708271424159e-07,-2.390294013326862812e-06,-2.939756541310883121e-06
-1.261792652205646639e-06,-5.220404766273329436e-07,-1.004804389208454295e-05,-5.441535409500496657e-07,-1.870803637911267169e-05,-2.254216080377771446e-06,3.797118212337557736e-05,-3.783097076070939243e-07,-1.857939165823647970e-06,-2.396650228586891067e-06
-5.908745160915996450e-07,-4.181882557610282765e-07,-5.546442802268106257e-06,-2.438589110242067010e-07,-2.036450478592328656e-05,-6.441343486274364605e-07,3.035587481392036332e-05,-1.042038030414973994e-07,-1.404911243631172855e-06,-1.038756147551996090e-06
-1.561256264072341953e-07,-7.599310460747772716e-08,-8.203791842144830319e-07,-4.768540160578354971e-08,-2.294722474018242277e-05,-8.256699593271669172e-08,2.507345895846588944e-05,-6.156159502380789144e-08,-3.694427378408207881e-07,-5.124795726511046739e-07
-1.495617973880849309e-08,-1.035747025334475763e-08,-2.074385232547014563e-07,-1.041358470820505077e-08,-5.599010796136789762e-06,-2.506867350395253482e-08,6.201269002310823214e-06,-4.715505287735487165e-08,-9.383924382928124642e-08,-1.930294780083766672e-07
0.000000000000000000e+00,0.000000000000000000e+00,0.000000000000000000e+00,0.000000000000000000e+00,0.000000000000000000e+00,0.000000000000000000e+00,0.000000000000000000e+00,0.000000000000000000e+00,0.000000000000000000e+00,0.000000000000000000e+00
0.000000000000000000e+00,0.000000000000000000e+00,0.000000000000000000e+00,0.000000000000000000e+00,0.000000000000000000e+00,0.000000000000000000e+00,0.000000000000000000e+00,0.000000000000000000e+00,0.000000000000000000e+00,0.000000000000000000e+00
0.000000000000000000e+00,0.000000000000000000e+00,0.000000000000000000e+00,0.000000000000000000e+00,0.000000000000000000e+00,0.000000000000000000e+00,0.000000000000000000e+00,0.000000000000000000e+00,0.000000000000000000e+00,0.000000000000000000e+00
0.000000000000000000e+00,0.000000000000000000e+00,0.000000000000000000e+00,0.000000000000000000e+00,0.000000000000000000e+00,0.000000000000000000e+00,0.000000000000000000e+00,0.000000000000000000e+00,0.000000000000000000e+00,0.000000000000000000e+00
0.000000000000000000e+00,0.000000000000000000e+00,0.000000000000000000e+00,0.000000000000000000e+00,0.000000000000000000e+00,0.000000000000000000e+00,0.000000000000000000e+00,0.000000000000000000e+00,0.000000000000000000e+00,0.000000000000000000e+00
0.000000000000000000e+00,0.000000000000000000e+00,0.000000000000000000e+00,0.000000000000000000e+00,0.000000000000000000e+00,0.000000000000000000e+00,0.000000000000000000e+00,0.000000000000000000e+00,0.000000000000000000e+00,0.000000000000000000e+00
-5.974915667173086089e-09,-2.033999335824523545e-09,-7.279896480384963334e-09,-3.107494561213817688e-09,-1.381077242947809880e-08,-6.957438220059606890e-09,5.523782777601602659e-08,-1.814079695680078733e-09,-6.335746611876305943e-09,-7.923484774325602432e-09
1.005676719556105822e-06,-1.410762105047736144e-09,-3.714710478719654315e-08,-4.688494818507390402e-09,-8.273119555434534396e-07,-8.107107518932277512e-08,2.492908312181979911e-07,-1.299182931477276975e-07,-2.590395503795714160e-08,-1.475159101450894117e-07
3.736240756486080597e-07,-3.170515857944067001e-08,-9.188967738080560345e-07,-3.094140688681532131e-08,-1.197704671440112484e-06,-6.758487398229453538e-08,2.248571137341700892e-06,-8.987606143228923340e-08,-1.290186894188773624e-07,-1.564675774424217686e-07
-4.136943511570538327e-07,-2.636407368324782478e-08,-2.922287497917344329e-07,-9.345923571195208553e-08,-9.885576774141385978e-07,-3.471172895632627619e-08,2.029032720868774667e-06,-3.693925250049328438e-08,-7.250080236443630101e-08,-7.057684928939025445e-08
-1.048071552651436422e-05,-2.378173739132393397e-07,-3.877563748139924064e-06,-7.617738230346561106e-07,-2.895097157704853584e-05,-3.038942106690500189e-07,4.676285042151910457e-05,-9.179216621706320844e-07,-5.891084383585158112e-07,-6.430840616702435387e-07
-1.315723194083806989e-05,-3.846830027460342007e-06,-1.036993047946619565e-05,-3.613674997181132126e-06,-1.057550996418723285e-04,-3.011447096119971031e-06,1.495868791447022689e-04,-3.530137650192398746e-06,-3.137259338878271632e-06,-3.165267972693660131e-06
-1.838148494352365717e-05,-2.645107040354132202e-05,-3.736230362941071956e-06,-1.180466423008922802e-05,-1.411658682056768203e-04,-4.329506094932035338e-06,2.279149854743149856e-04,-8.273816548564763221e-06,-8.124775357914909069e-06,-5.647569327131510495e-06
-3.200998318167456097e-05,-4.596402893548392127e-05,3.945187281382800642e-05,-2.447138057027843292e-05,-1.525009890949178333e-04,-1.217886114336415953e-05,2.749357782369447997e-04,-1.500362777666241595e-05,-2.291278202938419568e-05,-9.345998319007593129e-06
-3.647719194587356649e-05,-4.600659326148473759e-05,3.165398847045109711e-05,-1.642827158078001966e-05,-2.967636411993864647e-04,-3.333192658030712695e-05,4.862776637587753396e-04,-2.303302868458586964e-05,-4.219762659627322927e-05,-2.369337238053561556e-05
-4.683057867828485985e-05,-4.919641055950276437e-05,7.404269786747257076e-05,1.118093533561701599e-05,-3.570822251272600897e-04,-6.645358082839198364e-05,5.699196614028465566e-04,-4.314373842555220101e-05,-5.607500220285338598e-05,-3.636175878409007107e-05
-5.754486047802554675e-05,2.191532119486234440e-06,1.032777453549179572e-04,1.140045981118487972e-05,-4.800551995770897828e-04,-8.657108153932041594e-05,6.760205201684800621e-04,-4.125423929547060008e-05,-7.139319947228908139e-05,-5.607167709187396151e-05
-8.747807622343028262e-05,1.000403559230968875e-04,1.062493392597864612e-04,-1.618812121756134340e-05,-4.368934420816185382e-04,-1.114362756959469289e-04,6.378371757273163098e-04,-3.076742891377966135e-05,-9.562542889143801005e-05,-6.573809788642497184e-05
-1.406602117240698339e-04,1.204279277800924890e-04,1.308284572233205263e-04,-1.524498634927603372e-05,-3.469528875990452962e-04,-1.336211468663791116e-04,6.026065822421196403e-04,-3.479083159235961387e-05,-1.135355084103599168e-04,-6.905739470404416089e-05
-1.668222236206939662e-04,2.198313974936982516e-04,1.692129973662129933e-04,-4.592854900416635838e-05,-3.621575115961035295e-04,-9.686738510701545636e-05,5.209557773712259051e-04,-3.926317215766928490e-05,-1.240505496343702774e-04,-7.491078111111944271e-05
-1.475020884787792467e-04,1.301207222363013173e-04,1.793521276828112098e-04,-3.588549433320799341e-05,-3.480399731508867166e-04,-3.201726451318718706e-05,4.927737550261610108e-04,-2.688317246374887889e-05,-1.283493542565559888e-04,-8.356925774890774667e-05
-1.253993977969508936e-04,1.427299299289378447e-05,5.047556866047748543e-05,-2.722546222385354358e-05,-2.151824566028154133e-04,2.301994478563761058e-05,4.583790628244191392e-04,-1.953582824164495086e-05,-9.618844153811213803e-05,-6.261598286005131742e-05
-9.569562113387576282e-05,-1.817035647436791808e-05,-7.061899703738392221e-05,-4.092466157177167935e-05,-1.438835034619183730e-04,3.237555773734950357e-05,4.473013922746138255e-04,-1.342929256771907437e-05,-5.352793436283757362e-05,-4.342658340208913748e-05
-7.574078702868804647e-05,-1.818752510241396082e-06,-1.463300309223645936e-04,-3.087304169116839481e-05,-7.927762410944033666e-05,1.176302943761875569e-05,4.250119396793033228e-04,-9.043331212229610750e-06,-6.279462938653608865e-05,-3.089677225625329980e-05
-5.524642023750785021e-05,-1.865128194394833966e-05,-8.590015271380187797e-05,-1.677614643628553193e-05,-4.453167979884397075e-05,-4.759939167747813963e-05,3.187940668071702669e-04,-5.642779692613862587e-06,-2.920856766305173621e-05,-1.523764664363881734e-05
-3.134957879634878131e-05,-1.722320364634664019e-05,-7.436067159839332560e-05,-1.495135901852846291e-05,-3.424369431650555221e-05,-4.431916142432606174e-05,2.529468984599080755e-04,-3.843105860893478488e-06,-2.146580548881003958e-05,-1.119031830975580121e-05
-1.523828242341856530e-05,-1.039687989860885413e-05,-6.156090588798162591e-05,-1.055943818127658884e-05,-3.617512724821695313e-05,-2.090218727571833060e-05,1.787463710264850067e-04,-2.255598276939861982e-06,-1.561607347334525073e-05,-6.041878360978487354e-06
-6.340142578614050343e-06,-5.953461905285965129e-06,-2.209057335119845165e-05,-3.728000766583322530e-06,-2.193655413316831446e-05,-2.018071339721076802e-05,8.959887135295904346e-05,-5.222275018719280654e-07,-7.381189312792612702e-06,-1.466008406233808223e-06
-1.556773732416515397e-06,-2.156775425115559376e-06,2.032079317112092773e-05,-7.386067465598488843e-07,-4.664053105922165179e-06,-1.344257302390661401e-05,6.580515135589518295e-06,-1.960596207937026623e-07,-3.772267331274485734e-06,-3.741993207215601277e-07
-1.112657668777505012e-07,-2.677893980960245562e-07,1.816924020408095197e-05,-3.669755661393219286e-08,-9.128959219979894671e-07,-2.470390937971875590e-06,-1.304321238578466278e-05,-2.468786705092130442e-08,-1.213983485780530125e-06,-8.831688390725945984e-08
0.000000000000000000e+00,0.000000000000000000e+00,0.000000000000000000e+00,0.000000000000000000e+00,0.000000000000000000e+00,0.000000000000000000e+00,0.000000000000000000e+00,0.000000000000000000e+00,0.000000000000000000e+00,0.000000000000000000e+00
0.000000000000000000e+00,0.000000000000000000e+00,0.000000000000000000e+00,0.000000000000000000e+00,0.000000000000000000e+00,0.000000000000000000e+00,0.000000000000000000e+00,0.000000000000000000e+00,0.000000000000000000e+00,0.000000000000000000e+00
0.000000000000000000e+00,0.000000000000000000e+00,0.000000000000000000e+00,0.000000000000000000e+00,0.000000000000000000e+00,0.000000000000000000e+00,0.000000000000000000e+00,0.000000000000000000e+00,0.000000000000000000e+00,0.000000000000000000e+00
0.000000000000000000e+00,0.000000000000000000e+00,0.000000000000000000e+00,0.000000000000000000e+00,0.000000000000000000e+00,0.000000000000000000e+00,0.000000000000000000e+00,0.000000000000000000e+00,0.000000000000000000e+00,0.000000000000000000e+00
-1.529213788114762558e-08,3.888889332532239713e-07,-6.736007013939296112e-08,-2.349708059208979534e-08,-3.373784160332963015e-08,-2.096918934922074690e-08,-1.158367308398756712e-07,-6.656646454327444456e-09,-8.446422000765865864e-08,-2.107501638618137584e-08
1.332271294395656488e-06,7.927402425063739986e-08,-2.832971536504079580e-07,-8.357745357831286643e-08,-3.096030611380066499e-06,-7.007214112352386258e-08,3.471635705388132268e-06,-4.210946936980448260e-07,-3.374717246060084754e-07,-5.916372459980602795e-07
-8.702461015714438240e-06,-9.366408042519927316e-08,-3.799517147928990001e-06,-2.737352293319687906e-06,-2.460025502192485830e-06,8.759345172710879281e-06,1.150499146159894908e-05,-1.376144659892560703e-06,-7.103481258239789134e-07,-3.848238090125210270e-07
-4.692636421456976281e-05,-1.672456339066701929e-06,-9.272942509097980873e-07,7.015560278559683624e-05,-5.234932708560882469e-06,-2.804747114333274293e-05,2.046614826130171066e-05,-1.676804316432730464e-06,-5.042050124077515685e-06,-1.094377949948441010e-06
-6.301368580946007183e-05,-4.754599037113085647e-06,2.817429659078757577e-06,6.044964730568997579e-05,-5.012729764492150305e-05,-2.227344714571492999e-05,9.570881451812337159e-05,-3.812301433987863101e-06,-1.119738315859527340e-05,-3.797177253099469838e-06
-7.960126983634625939e-05,-2.768032649833658559e-05,6.251057939149959049e-05,9.324412478537120812e-05,-1.173342630759552921e-04,-4.665297730866295895e-05,1.769898267030205294e-04,-1.957478945704926212e-05,-3.206438664771916862e-05,-9.836518055821511557e-06
-4.231567564070484592e-05,-8.521579338344051823e-05,1.788183514212315732e-04,1.150471974578620574e-04,-2.480097265499375532e-04,-5.969871303673537888e-05,2.695928677870101410e-04,-4.896733317949842951e-05,-5.694157205061687341e-05,-2.230960282517033516e-05
-1.081793015813174502e-04,-1.463149477793360066e-04,5.136849079975450280e-04,6.533249959139904306e-05,-3.854661935786689894e-04,-9.986151797584610522e-05,3.814947328364103876e-04,-7.250473693325506933e-05,-1.054402099069048530e-04,-4.274523267002488711e-05
-1.198157874141064425e-04,-2.382883193047653466e-04,6.373352800440995050e-04,1.566139104354998034e-04,-5.202333632274015436e-04,-1.057094962456522235e-04,5.389095025017912217e-04,-1.172200223551320608e-04,-1.534782129191613839e-04,-7.811349151517208485e-05
-1.109966789377380943e-04,-3.169789232726507558e-04,8.007665775089662773e-04,4.162874690102231763e-04,-6.529472565904412447e-04,-2.068627302297119702e-04,5.803888606174827016e-04,-1.685575517494835099e-04,-2.226093327310340729e-04,-1.184904336256133747e-04
-1.592275704355339988e-04,-1.858681698921959365e-04,8.624182503392270995e-04,6.193399036810216156e-04,-8.681721078675792977e-04,-1.778455206698208320e-04,5.101310729152785635e-04,-1.472767355261641491e-04,-2.921211428341457736e-04,-1.613779797100865592e-04
-1.050452207123430635e-04,-6.332197155421092846e-05,9.140184082622747385e-04,5.887312574899226112e-04,-1.016946635099421530e-03,-1.919585257560907842e-04,5.922758767198648550e-04,-1.538045300917734344e-04,-3.423478476526451851e-04,-2.216008116055775230e-04
-1.591448913376550039e-04,-4.229843732487004350e-05,6.775768071611091561e-04,7.889993812859321613e-04,-8.767483210703556342e-04,-1.018631708126255698e-04,6.062779975817057278e-04,-1.645381926889620788e-04,-4.449486707629592510e-04,-2.833125020313184543e-04
-1.924063511499884819e-04,1.341519085692352792e-04,4.557477835373024218e-04,7.364571678355485594e-04,-8.300071626383424741e-04,5.070968641339615283e-05,5.854619264456191246e-04,-1.662244217016878376e-04,-4.436732645099461785e-04,-3.302172728011372026e-04
-1.932088381379127489e-04,1.152053377504465130e-04,4.531980210897651679e-04,6.358063915392876903e-04,-6.995232432772623393e-04,1.104908137057471722e-04,4.901457793667183963e-04,-1.400827633281218803e-04,-4.742395652132334730e-04,-2.977919334954370867e-04
-2.446919126401369713e-04,-1.364511546254103746e-04,1.920350289991901616e-04,5.822735786154726060e-04,-5.344120894576726661e-04,3.102706309943427366e-04,5.890034116525362214e-04,-1.112823992216480996e-04,-4.269105728786674815e-04,-2.198345214380074877e-04
-4.194734603718304608e-04,-2.242154758586878968e-04,-1.908138372929306446e-04,4.533943943092902731e-04,-3.605997098987096081e-04,4.715674377102803405e-04,7.703969827265376392e-04,-9.385859367692673269e-05,-2.730146484121643733e-04,-1.333830892348579673e-04
-4.181707019153402391e-04,-1.694303743181465292e-04,-3.238416551712870739e-04,2.891782984304831403e-04,-1.374740634302022311e-04,4.211714342287170261e-04,8.316930347640231428e-04,-6.409796939792788994e-05,-3.080574746106916578e-04,-1.209705285796312119e-04
-3.112932565009984766e-04,-1.503117653132067467e-04,-3.538053974563217115e-04,1.977335848190775360e-04,-2.398270839097979868e-05,3.838564206974732964e-04,5.995871885592007552e-04,-4.836816555872698072e-05,-2.010940051862864007e-04,-9.232189566923094753e-05
-2.578932642074348801e-04,-1.231070202820414938e-04,-2.813992742163496535e-04,-7.220532823800728092e-05,2.552735788715846120e-05,3.024767085701369541e-04,5.731414781838235859e-04,-2.846943100959302116e-05,-8.803083635012014989e-05,-5.004039033757360597e-05
-1.612482244875668126e-04,-9.805578703904844421e-05,-2.406782345075014729e-04,-1.218931899829370496e-04,1.412531203047600108e-05,1.638918744592003293e-04,4.931037969126203643e-04,-1.241231104396830104e-05,-1.664440958695009916e-05,-2.018882675432391726e-05
-8.058747494604566019e-05,-6.346665130497455756e-05,-1.703089454580867493e-04,-6.236347677541636018e-05,1.164480927965186319e-05,-2.204983279851093023e-05,3.816388627190142905e-04,-5.454949983700062365e-06,1.991548393769410858e-05,-8.967824669626089007e-06
-3.544699707444725012e-05,-4.334449499480150583e-05,-4.657647631747777899e-05,-2.077425031268899402e-05,-1.294065863802370816e-05,-3.101871279566218234e-05,2.012131355381493883e-04,-1.830836753238602116e-06,-6.507529542910312838e-06,-2.773179108898972585e-06
-1.063071991649227306e-05,-1.030212674708359002e-05,9.295817564082365251e-06,-1.482342042492691980e-06,-1.391041577760045043e-06,2.251826871418393728e-05,-5.456507401841792603e-06,-1.446615744350993234e-07,-2.054383697987494536e-06,-3.523033201733345171e-07
-2.337509939384267735e-06,-1.326609225282737605e-05,-8.650570980469982582e-07,-8.050846729899620680e-08,-3.941244234670200214e-07,5.202560642190007404e-06,1.530765484396866326e-05,-1.183616935947437565e-08,-3.527568684457244286e-06,-2.751845131728657784e-08
0.000000000000000000e+00,0.000000000000000000e+00,0.000000000000000000e+00,0.000000000000000000e+00,0.000000000000000000e+00,0.000000000000000000e+00,0.000000000000000000e+00,0.000000000000000000e+00,0.000000000000000000e+00,0.000000000000000000e+00
0.000000000000000000e+00,0.000000000000000000e+00,0.000000000000000000e+00,0.000000000000000000e+00,0.000000000000000000e+00,0.000000000000000000e+00,0.000000000000000000e+00,0.000000000000000000e+00,0.000000000000000000e+00,0.000000000000000000e+00
-2.666329267343719245e-09,-2.747198425715201554e-09,-3.617751159169683835e-08,7.504532711380801152e-08,-4.108314189020584761e-09,-1.487248385418427359e-08,-3.282952881760484908e-09,-1.898137112036810634e-09,-7.227916944487391557e-09,-2.064482847562795010e-09
-9.206839236737618223e-08,1.320206850449624513e-06,-8.258010963799704584e-07,8.201065998804656561e-07,-4.964451341527579509e-08,-6.125855292893296091e-07,-8.325400322675670401e-07,-1.571367442257476450e-08,3.173021268933186376e-07,-2.926233908131367710e-08
-2.552316262695679826e-07,-6.147699818964377610e-08,-3.957207795282962789e-06,1.295148475496920810e-05,-1.071787650257971020e-06,-4.692417678990242635e-06,-1.930403713227932328e-06,8.444191936588441146e-07,-1.315842052681534397e-06,-5.115364337281914896e-07
-1.463591309758562788e-05,4.277654669348054654e-06,-3.317077779659404754e-05,5.848143394454546293e-05,2.257527281550370492e-05,-3.677726115347501547e-05,1.334570037645199760e-05,-1.961756903437294365e-06,-9.769096489630439486e-06,-2.365256365126850848e-06
-8.538864869117099971e-05,2.542925767731922331e-05,2.705074878981318456e-05,2.495354259426450349e-04,2.049892008547471396e-05,-1.613724577315876448e-04,6.738960024031133565e-06,-2.650833464942952338e-05,-4.149361686622967749e-05,-1.449025458086552196e-05
-1.048534058762284671e-04,-9.018548446040670189e-06,1.592135626270850123e-04,3.781847857741210597e-04,-5.341594662249989892e-05,-2.390668896662496241e-04,1.148513955189497708e-05,-3.152118375956133796e-05,-8.816880810344884919e-05,-2.283870547907276399e-05
-8.802064146638391765e-05,-8.433385593256059406e-05,2.224553374716822286e-04,5.263314767644381494e-04,-8.972479035928925635e-05,-3.023827707512059880e-04,7.193142587492918000e-05,-7.618622262033982481e-05,-1.294433511846778556e-04,-5.062660779659275856e-05
-7.008761473720574178e-05,-1.409284595463659027e-04,4.181106599490981026e-04,7.322905328363966656e-04,-2.674203643123841180e-04,-5.012814541085385467e-04,1.920685137754331317e-04,-1.437817717626407984e-04,-1.148120914049967828e-04,-1.041579506887950203e-04
-5.332373308661564711e-05,-2.511115051844434740e-04,8.737656914144372941e-04,7.564211473846787484e-04,-4.450862165241414718e-04,-4.578376753892557534e-04,1.425327034919587617e-04,-2.441958611897203954e-04,-1.271550583103809359e-04,-1.940094926065184073e-04
-1.030028441827405308e-04,-2.391576132259985049e-04,9.337925565745181563e-04,9.543574093358210683e-04,-7.017701911181039795e-04,-2.935501465100463434e-04,2.316080961782551479e-04,-3.569130620766744109e-04,-1.530187130135012594e-04,-2.723454919615303331e-04
-3.744461500471162242e-05,-2.764492592533916043e-04,1.061632425616300737e-03,1.102160130644002809e-03,-8.036909990348091145e-04,-1.250063323081738596e-04,-7.163141189705643974e-05,-4.366654004732122441e-04,-4.714972327251244386e-05,-3.657548150164342598e-04
-1.407849679600877606e-04,3.887726160436375542e-05,1.102420239606318733e-03,1.136052958132097992e-03,-9.091776036395520259e-04,-2.139930748854461471e-04,-1.912232341711061394e-04,-5.072175820707627023e-04,1.955722090800574432e-04,-5.105262056958832567e-04
-1.847759309457054240e-05,4.460937504652753177e-04,8.126378550091580433e-04,1.162355487825837783e-03,-8.702799098203622312e-04,-4.102226724684982753e-04,-1.521315070653223044e-04,-5.837822586961455892e-04,2.406229396673894595e-04,-6.268160918227602078e-04
-9.122286714794518021e-05,5.260340638652299299e-04,7.381589963192502352e-04,9.574095060758402997e-04,-9.561236790719748876e-04,-5.278831833526289111e-05,-1.673126287427355015e-04,-6.477853512328302608e-04,4.870137566632931733e-04,-7.933834783928690911e-04
3.834638930404119493e-05,4.828554977781679934e-04,4.436056435348534094e-04,8.545397933161076555e-04,-9.409560649350461178e-04,4.510927819268223328e-04,-1.931026864148565768e-04,-6.613764910254042338e-04,4.512801219308169268e-04,-9.262849854155014596e-04
-1.432681809617901739e-04,2.325547306500302751e-04,4.069098069878046000e-04,7.904627591755986017e-04,-6.792016404432328885e-04,5.450121194916141866e-04,1.774424223771206783e-04,-6.266096641626263484e-04,2.726986010603004188e-04,-9.760009541748208405e-04
-4.962043007552762282e-05,-1.789198925633349271e-07,3.098353717280358894e-04,5.078634558629073177e-04,-4.959018691955674983e-04,6.308634211785211577e-04,4.705234880877890249e-04,-5.222632764181938054e-04,-6.114497043837647692e-05,-7.899762708370234492e-04
-2.115547643104806561e-04,2.366322699374398531e-05,1.499866360071894225e-05,5.521730355628273008e-04,-3.655579822840479619e-04,6.348667315060495166e-04,5.312885135597513516e-04,-4.202667641446417458e-04,-1.494852060336388357e-04,-6.101254544502819751e-04
-3.064491068328196966e-04,3.225337752920739856e-04,-2.925568801638283450e-04,2.251224964032777400e-04,2.166525216565795987e-05,2.931239001282704825e-04,7.576008003562058812e-04,-3.064901984356981318e-04,-2.102209088917569987e-04,-5.043291300213831752e-04
-2.802920436034693247e-04,3.973616997454746096e-04,-3.971002037517811834e-04,-1.749756100535616063e-04,2.538245224088267970e-04,1.018243683655316367e-05,8.963082175452236544e-04,-2.255824243129163418e-04,-1.192733126161789640e-04,-3.604532821981695626e-04
-2.784757269050263848e-04,3.980938455475046514e-04,-5.642851361957560439e-04,-3.804821993189286245e-04,2.689244439311036581e-04,4.102614211781558631e-04,8.790449380026103127e-04,-1.433352187773809998e-04,-3.149949515412597129e-04,-2.747514159210229906e-04
-2.069149881289368195e-04,2.274622068338078376e-04,-5.848811779278004089e-04,-3.443246407991007582e-04,3.242105137457516298e-04,3.914515445476852268e-04,8.269308658761770998e-04,-9.549585878442376160e-05,-3.796396072194435927e-04,-1.587988581437189874e-04
-1.947971844062318196e-04,8.382756452127459762e-05,-4.076295706765663425e-04,-3.449327187908063320e-04,2.840237417649667793e-04,4.318813578669029483e-04,5.636355974310004431e-04,-4.372777657416686628e-05,-3.008642278188880200e-04,-7.141678331748594353e-05
-1.709989919738648444e-04,-1.273087398495658567e-04,-1.975168568255437950e-04,-8.736531486181975067e-05,1.659252700440754880e-04,3.629769969865215946e-04,1.408058450210139957e-04,-1.648520031949613784e-05,-4.258153695227199738e-05,-2.745147126904790686e-05
-5.769235667147162979e-05,-7.709192307495816969e-05,-2.515454546172569034e-05,-9.478144764646438715e-06,1.638929222100308022e-05,1.175378853969642241e-04,2.375920198697917569e-05,-4.093042961049691098e-06,2.328942226534147110e-05,-7.465788936436320485e-06
-7.105161701281964616e-06,-8.041188803997096184e-06,-3.895451296905083239e-06,-5.977053199120480564e-07,-7.957123239735777427e-06,1.337054894241340715e-05,2.386039134304449031e-06,-8.269151071842526759e-07,1.464060675927448750e-05,-1.973649366976119681e-06
-1.272586973183702514e-07,-3.419512005688776560e-06,-2.775242294989383211e-06,-7.807356624944515674e-08,-1.839417636109680116e-06,-1.524213870137479242e-06,1.012745563475173138e-05,-4.626931431443055774e-08,-1.692876677037305467e-07,-1.481805822404302633e-07
0.000000000000000000e+00,0.000000000000000000e+00,0.000000000000000000e+00,0.000000000000000000e+00,0.000000000000000000e+00,0.000000000000000000e+00,0.000000000000000000e+00,0.000000000000000000e+00,0.000000000000000000e+00,0.000000000000000000e+00
0.000000000000000000e+00,0.000000000000000000e+00,0.000000000000000000e+00,0.000000000000000000e+00,0.000000000000000000e+00,0.000000000000000000e+00,0.000000000000000000e+00,0.000000000000000000e+00,0.000000000000000000e+00,0.000000000000000000e+00
-4.496729367144694707e-07,1.118923063759696767e-06,1.061658383882544462e-07,2.575066098498113153e-06,-1.949390342914880853e-07,-2.375916601729053078e-06,3.847801044132003950e-07,-2.959743396239002088e-07,-7.669557009373135826e-07,-1.014764917630385886e-07
-3.844957471063209858e-06,6.910942379416917104e-06,2.582755577343397503e-06,7.932344481284637279e-05,1.473113573055773656e-06,-3.764611850948720189e-05,-2.619375695758014162e-05,-5.991644436900602687e-07,-1.808262498687244319e-05,-3.923633973969413434e-06
-4.572531772354103971e-05,1.033745896260611107e-05,1.693523405968277469e-05,2.494891585312658424e-04,4.402125190145936517e-05,-1.911375632966159726e-04,1.067142656357958094e-06,-9.923224422197955829e-06,-5.579176935018691225e-05,-1.927237131883017683e-05
-1.493587704926690313e-04,5.028606388135858983e-05,1.006050962818087145e-04,5.723741625968458780e-04,1.000959297487269515e-04,-3.636227759473068650e-04,-1.372554082662308535e-04,4.257754177060686765e-05,-1.431566257614545854e-04,-7.254521381168579496e-05
-1.432676743338583472e-04,-3.420329846468369059e-05,2.808090223947191911e-04,7.974328320812108361e-04,1.048297376672328889e-04,-5.308667749884031593e-04,-1.004648032684795294e-04,2.339833382115609023e-05,-2.270566196953830644e-04,-1.706107552135127875e-04
-1.581820492830740793e-04,-1.978582770372186341e-04,4.967413940875359127e-04,8.433188993311450552e-04,5.845428771431308081e-05,-4.374705074525234399e-04,-7.991982919295021522e-05,-5.980754881794087989e-06,-2.329779417085584795e-04,-2.861252215768766679e-04
-1.532638114363938525e-04,-4.691190201416664302e-04,8.060755415455740733e-04,7.245743151548467370e-04,-3.519181843607487546e-05,-3.058076062389186115e-04,8.864546812022771022e-05,-7.299221249183215590e-06,-2.503031931772907383e-04,-3.983106541411173852e-04
-1.407441905398751304e-04,-5.408281283821883773e-04,8.998550558010075555e-04,7.058311663598914373e-04,-8.066088348103125655e-05,-1.971141031140409030e-05,-1.425107933765586664e-05,-1.134191159351918322e-04,-1.584439173419088700e-04,-5.376274968316436913e-04
6.069343760601487737e-05,-4.414046941957768216e-04,9.093840037056991109e-04,7.483277676295181299e-04,-3.675696597103981166e-04,1.797773046883501490e-04,-3.821669249587987489e-05,-3.512516989290641626e-04,-2.740172870579957978e-04,-4.257224812404673581e-04
8.484894550833335528e-05,-3.675057651456044403e-04,9.913778298303458150e-04,5.866596024807761061e-04,-5.110417592921329133e-04,2.268596402749180091e-04,-6.244535147905257112e-04,-5.970556144125642103e-04,2.259293537559247658e-04,-1.561871820946869588e-05
6.997381400396807398e-05,-6.070933953298490260e-05,9.230034793565601277e-04,3.699117569819550407e-04,-6.147924413358316683e-04,-1.314776452512142778e-05,-4.987513328703349971e-04,-7.529708879571364718e-04,5.594644487818558297e-04,1.801826709707190664e-05
4.857379983652990976e-04,3.033528527626610008e-04,8.787262554628499055e-04,3.375731391917817189e-04,-7.760494848428335342e-04,-1.467892357004766670e-04,-6.100472443838614095e-04,-9.780041155101801796e-04,4.649393086519325053e-04,4.056052600282719623e-05
6.217932403591985152e-04,3.689476727498434668e-04,7.797628836682857136e-04,1.816510528422420696e-04,-3.825207925095390764e-04,-2.297196256364759492e-04,-3.353619816868923156e-04,-1.107877877411679720e-03,5.496562196706861929e-04,-4.463307920456718782e-04
5.970766018179577599e-04,4.225905259909586110e-04,8.109137361910459703e-04,4.361925168506754994e-04,-2.735549692629233578e-04,-2.537765648649983538e-04,-3.862525420269111078e-04,-1.155612759139747247e-03,4.756345136693987440e-04,-6.732110592254533744e-04
5.331283226925075981e-04,-4.512785598384606357e-05,9.977657481632180771e-04,5.645563160836891909e-04,-4.771250752149027010e-07,1.675599467480364262e-04,-3.512558931138717823e-04,-1.173933470837360254e-03,5.511847892338338044e-04,-1.243400777910994058e-03
6.828851435438773512e-04,-3.010769451093477187e-04,8.930739581835919110e-04,2.435492240922810156e-05,3.538661255941805191e-06,4.158905658711853901e-04,2.127564810866954109e-05,-1.203506229648043657e-03,6.468815765379755389e-04,-1.183317301153076571e-03
5.679455125188826239e-04,-1.885218884830526124e-05,5.214239321744387930e-04,5.437760704557095370e-05,1.707124526661098923e-04,3.806751383075534763e-04,3.930538408659782251e-04,-1.076382220623862788e-03,1.210883079548357756e-04,-1.114042382061204489e-03
2.251859810844667928e-04,2.631352753769983926e-04,4.201429870120222199e-05,1.372641805392776931e-05,3.332571591995799488e-04,1.362675175684909695e-04,6.583588106416643103e-04,-9.688639397983807560e-04,2.307449629907830477e-04,-9.338264838187343301e-04
-1.938555441283528350e-05,5.351478654877279582e-04,-1.457449547700057112e-04,-3.478499781161052641e-04,3.210819847538952062e-04,4.570621622074842023e-04,5.875667757173370226e-04,-7.906059914119971995e-04,2.423484158624509795e-04,-8.396207253179508974e-04
3.662765123047269892e-05,7.745651769286209052e-04,-2.446775964763798464e-04,-6.224651735324250807e-04,3.922559884704332088e-04,4.542287360827725767e-04,5.330651877241929541e-04,-5.259267088185796968e-04,-6.382918480648248319e-05,-7.338440768026251214e-04
-6.503661474120179631e-05,6.454897128533530195e-04,-4.443128967747518262e-04,-6.671684141049174501e-04,6.631281783739208019e-04,7.347015796040342944e-04,4.484723130488873751e-04,-3.394479844170163727e-04,-3.520104125600170592e-04,-6.238154612822925313e-04
-3.177688457937487428e-04,3.509259089990447418e-04,-5.319186253153620298e-04,-6.064460893691153666e-04,8.215786037167803436e-04,8.473637892724860841e-04,4.513232139913101880e-04,-1.995471025997511019e-04,-4.105203175553001366e-04,-4.049905353463461753e-04
-3.392457865508430748e-04,3.584168841784528980e-05,-3.186054924862711819e-04,-2.301774183466884292e-04,3.485074077607016848e-04,7.511100644366888778e-04,1.923662286047828573e-04,-7.255385617922633355e-05,-1.819979677762913282e-04,-1.852448678806982061e-04
-1.700253049406533212e-04,-1.338459770311089614e-04,-7.602959311714803338e-05,-4.683563909808482556e-05,2.443125554350323198e-05,4.287032980508712066e-04,2.278835263714022316e-06,-2.190163533232540415e-05,4.949959725533147645e-05,-5.627483659409962958e-05
-4.480570776360814656e-05,-2.404006071437191864e-05,-1.609281712806950052e-05,-6.436271271499850421e-06,-2.052528353216908112e-05,1.214743739549607163e-04,1.953375640940657732e-05,-8.345035021112363603e-06,-1.240001867190293324e-05,-8.362936261633340237e-06
-9.924521736053733742e-06,-4.148974881252703219e-06,-4.088603092739324142e-06,-2.516604747259318432e-07,-4.716928278817692341e-07,9.584569888495887531e-06,1.497603719278865594e-05,-2.906647229540406972e-07,-5.267575013330214172e-06,-1.169143323467938676e-07
0.000000000000000000e+00,0.000000000000000000e+00,0.000000000000000000e+00,0.000000000000000000e+00,0.000000000000000000e+00,0.000000000000000000e+00,0.000000000000000000e+00,0.000000000000000000e+00,0.000000000000000000e+00,0.000000000000000000e+00
-5.846729637487374557e-09,-5.017072422537415356e-09,-2.359149547433139784e-08,3.633108969475038760e-07,-2.385283142578478912e-09,-2.961841077951635064e-08,-1.486652366697395420e-09,-1.093802394207437584e-08,-4.232967018954535683e-08,-2.420975589927362856e-07
-1.643828345333690802e-06,-7.724991578773176217e-06,-5.492893397498942258e-06,1.018494184754498054e-05,-3.161263657911957497e-06,-5.044301915586079874e-08,-7.711468809620383473e-07,1.953353819810675507e-05,-5.398355764674626908e-06,-5.475557401341415779e-06
-8.624941108408221428e-06,8.085597974116011952e-06,2.003342459651035533e-05,1.707445254070136763e-04,-2.017926959315222303e-05,-1.261558365436550675e-04,-4.283436487486963398e-05,8.102024807726884443e-05,-5.307912585615509208e-05,-2.901025807866889394e-05
-8.057694570427183310e-05,5.815678335864801941e-06,1.079132021423034199e-04,4.328520424775670456e-04,9.402228800154908419e-05,-3.301453812149507784e-04,-5.288106968641010248e-05,4.615612788410062417e-05,-1.133457902825862044e-04,-1.098101519531656745e-04
-1.199790155211022234e-04,-8.266227002517760809e-05,2.422401563289801817e-04,7.057940428064927649e-04,2.452394066017487585e-04,-4.233848309178694057e-04,-1.809246710492481828e-04,1.467266610278820807e-04,-1.948699411916066603e-04,-3.381795380600997598e-04
-1.453653004398926924e-04,-1.853531110953008992e-04,4.657797355824364743e-04,8.798886470222352712e-04,2.457288666992287862e-04,-4.688278782288328667e-04,-2.602982224986101468e-04,2.818537048584516484e-04,-2.983291848523288202e-04,-5.150772570473865922e-04
-1.748906034542159873e-04,-4.145617979100619469e-04,6.440623526641948721e-04,6.253359792532007470e-04,2.259697715351422973e-04,-1.957557525332585661e-04,-1.413824509393510548e-04,3.594158433582464386e-04,-2.204737740652376089e-04,-7.077195679086574834e-04
-2.616579126709383282e-04,-6.871101935745433298e-04,6.156612172844870470e-04,5.657299884459158872e-04,8.068513389797439094e-05,9.936202138417776905e-05,-1.355210100614153161e-04,4.808469632987370530e-04,-5.089144863820680813e-06,-7.529070631405780862e-04
-3.405517695721154239e-04,-8.484417006400691999e-04,6.419956946845024361e-04,7.488637018012788771e-04,-1.573379543589732520e-05,2.455009205175604013e-04,-2.848060046236861151e-04,3.829286764079515041e-04,-2.801753920563892930e-05,-5.017381839338881395e-04
-1.768323644978897215e-06,-6.816446900649017265e-04,4.961838304967063204e-04,7.020589925944511643e-04,-3.176525918123416733e-04,2.866925913968847639e-04,-5.942448448208725040e-04,4.222053520652080285e-04,-1.025590036319387355e-04,-2.092713125782181877e-04
5.679031549171653594e-05,-4.627298786970514754e-04,2.046916241351764390e-04,4.015588713756638377e-04,-6.745296437834396360e-04,2.988890194091276160e-04,-6.013619051508378721e-04,4.090831977184348589e-04,1.441129259409474836e-04,2.234954735602605726e-04
9.912175643312094958e-05,-4.040879951033067986e-04,1.881474054282222710e-04,3.637315824414874598e-04,-7.934362997096373275e-04,1.941792100257832491e-04,-4.977353795084933337e-04,4.580254986374395322e-05,4.007250307787334534e-04,4.035521393503460966e-04
4.614539313327066083e-04,-3.375818110143287659e-04,3.244937292659682768e-04,6.972957436330432836e-04,-1.003504594438664856e-03,2.902032857728556488e-05,-6.959864002276910499e-04,-4.229616475197243812e-04,1.461446383856948269e-04,8.016260820057102181e-04
4.699719269205466284e-04,-4.189981766910037494e-04,3.839343753695093476e-04,4.925720129318302346e-04,-1.108382270878194211e-03,2.699801490638270508e-04,-5.973974837525617169e-04,-4.996062223297132203e-04,1.396611481952578942e-04,8.682645411705046693e-04
3.871077436717230307e-04,-6.656318215128731062e-04,3.947059202762237388e-04,5.529774601889229533e-04,-1.101927582081494274e-03,-6.716730804182723742e-05,-4.678313343411956123e-04,-3.795559933333773656e-04,7.004648602248387699e-04,6.468580549490578289e-04
5.987005787137352148e-04,-7.902707935682293933e-04,3.706284031640548374e-04,6.528023872318613379e-04,-9.109549347446380899e-04,-9.430510589518816596e-05,-5.950070105154261395e-04,-2.748369731768969060e-04,4.009273389381385472e-04,6.423161098525885949e-04
7.793689122527363601e-04,-7.959598699257653754e-04,1.881659996114999232e-04,3.700563065930189397e-04,-6.956841081474108559e-04,8.522691225962650979e-05,-4.618187781597034107e-04,-3.278565601361716170e-04,3.339360414808183013e-04,5.245651441713501542e-04
7.831749653879807984e-04,-3.084516086910198476e-04,1.223391996524565771e-04,4.972095033781792845e-04,-6.494852599710962925e-04,2.723778203190630820e-04,-4.313940157685999506e-04,-5.510950508546844312e-04,-1.269123043163491321e-04,3.922367508640683671e-04
4.876255811437331736e-04,-6.100345289412327130e-05,-1.265519410972551397e-04,-4.110297016826240440e-05,-1.885050105337157710e-04,4.123343651688817185e-04,-2.770124647803266218e-04,-5.314281026948040713e-04,4.082824015119483011e-04,-8.263840565607477519e-05
3.138164398282997222e-04,3.432927673758508300e-04,-2.688378891302024756e-04,1.739263241422313747e-05,-5.206191473611571281e-05,4.156041708824864656e-04,-2.048134150230195645e-04,-4.647760841178594574e-04,2.384074109293634767e-04,-3.380241184230265675e-04
5.276540233824236151e-04,4.012014488850434036e-04,-2.957649861071848501e-04,-1.804797679445513923e-04,2.844842252856357367e-04,2.730251739728285299e-04,-1.537516305347726544e-04,-2.570668520793588071e-04,8.512246907333670767e-05,-6.844241039334009397e-04
4.480175671448733180e-04,3.185275227241517594e-04,-4.916611728395453096e-04,-5.822415967495252805e-04,9.319017843196510630e-04,7.286445938681271718e-04,-9.751004666104741479e-05,-3.155881327187724968e-04,-5.103559215927981033e-06,-9.349869598719858866e-04
-1.477120793618731773e-04,1.280464732198497942e-04,-7.652027351966609117e-04,-6.704102254444920406e-04,1.136839677554916418e-03,1.249696343114349876e-03,-3.009705633378950766e-05,-3.462322620853652659e-04,2.359161311037790061e-04,-7.908442665707118673e-04
-5.512691365671686626e-04,-1.098894221940024192e-04,-4.209524708917052310e-04,-3.393110674678446429e-04,4.537932233085786296e-04,1.606587414655353705e-03,-4.549169256666743538e-05,-1.868107328900665961e-04,4.392782570568664658e-05,-4.505839410921639470e-04
-3.828528915841780005e-04,-1.584614140125757003e-04,-1.209813849618845532e-04,-1.011274575798655007e-04,7.022567042835109929e-05,9.453396918339594885e-04,-6.556077532313249413e-05,-8.621039760908725939e-05,7.574765254293276608e-05,-1.761186937345184361e-04
-1.520389244931557053e-04,-2.233812350454096710e-05,-2.129241452924885333e-05,-1.301880252831404979e-05,2.267469742672588830e-05,3.347919178883663072e-04,-2.877341676041672867e-05,-2.742485370782516647e-05,-4.377458568053504685e-05,-4.880549411105563061e-05
-3.345912500479406547e-05,-5.904682044373457740e-06,-3.846606742678304665e-06,-5.945833078645961752e-07,-2.125968733499746932e-06,4.560713449615801118e-05,1.290000831041277442e-05,-1.694470897248381430e-06,-7.159166734506594974e-06,-3.722539341605658864e-06
-2.067780190074095413e-09,-1.518674588935087952e-09,-2.856013800495819003e-09,-8.996261170269871969e-09,-6.532371546985734339e-09,-2.673955272344816699e-09,-1.975543938764840012e-09,5.735835817816555016e-08,-3.585998368166239224e-09,-2.715175930212906520e-08
-4.962606245112138298e-07,-5.158818367518207008e-07,-1.276706412584970227e-06,1.521821587973239037e-05,-5.894855529058773102e-07,-1.764881337179134754e-06,-1.249124185667873665e-07,2.080448511597343222e-06,-3.591850155286315770e-06,-8.938686053543578081e-06
-7.784568396524997052e-06,-6.031186886148641606e-06,2.965297155448654042e-05,-1.229559661058831674e-05,-5.379450923832807742e-06,-1.874329494858740768e-05,-4.374067257083444068e-06,5.980953630818116988e-05,-1.339540467047259515e-05,-2.145893816942948248e-05
-2.111438965270432988e-05,-1.003523292410283284e-05,5.527907115600815251e-05,1.849516370727435021e-04,-8.407035279477216569e-06,-1.730159845750773337e-04,-7.810179785190423036e-05,2.071529121530027591e-04,-5.571587533601695839e-05,-1.009933047624710919e-04
-1.180098866303725427e-04,-2.320060280050909501e-05,2.718599354260532947e-04,6.985000321079053208e-04,1.014762717100282311e-04,-6.139881405265941493e-04,-7.694030460163531551e-05,1.813676212119121381e-04,-1.042584482924378971e-04,-3.168064776043486366e-04
-1.344989144258664198e-04,-1.874294804262858821e-04,4.079903965723018005e-04,9.014497498983705271e-04,2.917606229756945888e-04,-6.151340274185269040e-04,-2.009241861282536274e-04,3.598168756755491067e-04,-1.694524827103312367e-04,-6.535785540126503538e-04
-1.538167053725702279e-04,-4.007443657896419815e-04,6.770014932485866064e-04,7.337548161848935239e-04,1.740593938700688383e-04,-4.183420803621964307e-04,-3.528959897068195792e-04,6.395904182710679484e-04,-1.090589550869385308e-04,-7.895480252564507362e-04
-2.616055035819046782e-04,-5.236377907654124345e-04,4.855947902418841365e-04,3.677598842742616707e-04,1.256634058635446559e-04,-2.690494916654241994e-05,-1.993460299267623879e-04,8.098979554615285412e-04,1.509071723520554083e-04,-9.283289347526558870e-04
-4.189083530572567781e-04,-9.023772870865496253e-04,4.592206955049984670e-04,2.092859441515541115e-04,-7.841008039179271324e-05,5.123057933472309087e-04,-2.729064291989597444e-04,6.969265107065753927e-04,3.563699884167030748e-04,-5.615067823925011829e-04
-7.789053891779916831e-05,-9.696869442774336831e-04,2.021834600461096178e-04,3.098057872750927932e-04,-2.288580569629495448e-04,3.986911639473206801e-04,-4.205215757100290008e-04,8.559657903336238306e-04,1.427725898716962147e-04,-2.124616756056324984e-04
8.697017171888040993e-05,-9.056390037384143840e-04,7.171620459423615440e-05,1.791671166498686255e-04,-5.473537106367165617e-04,5.569289628808983235e-04,-6.176034334295266333e-04,9.649417472682178748e-04,1.414532382676567330e-04,6.941870642490165341e-05
1.567670009626171237e-04,-7.968132638820807400e-04,2.708498355135339911e-04,1.815429319060027824e-04,-8.482253602674646011e-04,5.063872759480882342e-04,-5.081450501674163308e-04,8.941969072070780032e-04,-1.561538830533084753e-04,2.995936058329521810e-04
1.532914744728818620e-04,-4.961975486929760164e-04,4.233149595467174527e-05,5.122548373828503081e-04,-1.322496132597306010e-03,2.476451791108287125e-04,-5.716704073103266682e-04,7.697591671973684317e-04,-1.399247533485666452e-04,8.050066878305727012e-04
2.940351555586744482e-04,-5.365141433090750899e-04,3.305467964875885328e-04,4.392366375455522337e-04,-1.246589620042502788e-03,-7.844616505856547625e-05,-8.115268039951477157e-04,4.125752820301146887e-04,-1.412373579878955154e-04,1.337920218771257224e-03
3.004773914132064828e-04,-5.616871734192756347e-04,1.857709324738439404e-04,7.357819420787542215e-04,-1.537931729173798358e-03,1.972190310898832145e-04,-6.568610778317163440e-04,-6.847220718858185237e-06,-4.500151927671376543e-04,1.794093096855096936e-03
3.577479059125034892e-04,-8.950240708945969570e-04,-5.693060872545236073e-05,6.843159959234882198e-04,-1.670775180489954574e-03,-3.133941400446797797e-04,-6.185614769526960903e-04,2.362647628716978056e-04,2.864706257508426216e-04,1.989886186648848893e-03
5.473807597605862387e-04,-8.305027781835095995e-04,-1.264404154393122533e-04,2.290328423783661162e-04,-1.521187145300434244e-03,1.644047187434210557e-04,-8.948484943541265991e-04,6.200952612432588827e-04,5.700804064210827725e-05,1.755057210509642675e-03
8.458816666268786314e-04,-7.185374812272836030e-04,-5.988860886477101290e-04,3.758426549130530802e-04,-1.019260443871038146e-03,3.288514174141469884e-04,-8.533410731882803881e-04,8.581101267988907591e-04,-2.850468335466327667e-04,1.066386054727974002e-03
7.790829347679548329e-04,-5.036257137376793681e-04,-3.049160349991949137e-04,2.406717299963269233e-04,-8.107905648835982658e-04,1.757463363734722425e-04,-1.036128068745688921e-03,7.735042272327404900e-04,1.259507232633320906e-04,5.605044307323343205e-04
4.717319690277613805e-04,-2.936161286687891198e-05,-1.977648042727776214e-04,3.100010636758831583e-04,-4.984963664010405495e-04,3.024557206262219202e-04,-1.103220011143495657e-03,4.185279080191879695e-04,3.989053807808574237e-05,2.862355952570550454e-04
1.747949335592706129e-04,1.330592289584140375e-04,-2.687544557297510375e-04,2.603395423846896809e-04,-3.925307518656279008e-04,3.474105196625674628e-04,-8.690319045214794534e-04,3.580359854749677801e-04,1.182936366900665007e-04,1.383832653868834282e-04
2.845383050930956766e-04,1.244750720292866523e-05,-7.267385355007813794e-05,-1.127762392077676947e-04,6.044480490541453592e-05,3.495556091057406547e-04,-7.112670333927206823e-04,6.483047441972498233e-05,3.434316504639661088e-04,-2.185312250403037733e-04
4.544937728940780979e-04,-6.868465485396771852e-05,-1.371819603518967202e-04,-3.633946372142309901e-04,6.583968367920311777e-04,6.287588117569150366e-04,-6.837357209043894461e-04,5.056522009681922403e-07,3.143946546972200065e-04,-8.035527550167285201e-04
2.590316538724377017e-04,-2.885350734903295187e-04,-8.277374360443506308e-04,-7.129308974163928994e-04,8.727778536555342095e-04,1.523427461111463189e-03,-5.144744980406912695e-04,-1.750854118833469633e-04,7.866097638057422499e-04,-9.230834155700693485e-04
-3.721782138726003209e-04,-4.670051322713077765e-04,-5.549918240565220344e-04,-5.269279067551886804e-04,3.401713091689375821e-04,2.189538043124612809e-03,-1.813304502331055995e-04,-2.383260207912544007e-04,4.520908398689929184e-04,-6.410406441825612991e-04
-4.568384619742494289e-04,-2.428642068459086715e-04,-1.606502672125778857e-04,-1.436684663375589624e-04,6.062013240973602014e-05,1.614475023359899066e-03,-1.814738840766260905e-04,-1.540759589101495990e-04,-3.837666440044588083e-05,-2.971472460121186553e-04
-1.578548667527011028e-04,-2.402934996742375041e-05,-2.558959562394313357e-05,-1.428966025726462823e-05,4.101608744875619839e-05,3.753717949767095647e-04,-4.977590135481688556e-05,-3.207438841987549869e-05,-2.302371186200406950e-05,-8.975040818743739574e-05
-1.259435482489777243e-05,-9.022170732342727230e-06,-3.289981307300160425e-06,-7.530276202152058291e-07,-2.720496106945935583e-06,3.563377686715451164e-05,4.664733996967337531e-06,-1.988719763190166861e-06,-6.075601159982802565e-06,-3.854159349247074545e-06
8.663357002375259754e-06,-1.343827808223339321e-08,-2.468811778994281082e-07,-4.219640556580559727e-08,-3.774139302544003682e-07,-2.403490686674836335e-08,-5.606908141819109809e-08,-4.386178984852750875e-06,-6.654208833102692397e-08,-3.450602149104682798e-06
-7.369070008976094655e-07,-4.254272186177386255e-07,3.450121931150728080e-06,-5.083894874808229921e-06,-1.197813492043843799e-05,-1.410263957917841604e-06,-3.094482530447407804e-07,4.913071201376597257e-05,-4.232650940512521486e-06,-2.840410677867963584e-05
-6.073590603363923123e-06,-3.230498377161020716e-06,2.011507534087719645e-05,-1.964663598779344653e-05,-9.068529816372660857e-06,-2.431134863589321741e-05,-6.052856979679394120e-06,1.510422253885198543e-04,-2.237164681381012657e-05,-8.040219351532337452e-05
-2.797608052388367080e-05,-7.552250695204124848e-06,5.863784584585044114e-05,1.906694660919946711e-04,-3.249607124357953275e-05,-2.122808683110561344e-04,-6.726645220825530071e-05,4.146122901532950204e-04,-4.713704250918702006e-05,-2.692108365999752013e-04
-1.808453033326388809e-04,-4.980049716425121196e-05,3.615377313752860086e-04,7.693897713721159102e-04,3.114482700960908147e-05,-7.873850596553008110e-04,-8.729708645786656983e-05,4.931857862299314629e-04,-6.078068410231137012e-05,-4.891494852745760860e-04
-2.259080074749459884e-04,-2.068866136602641351e-04,4.781732065107130209e-04,7.775996276097562861e-04,1.823778350726887386e-04,-7.083046110238713517e-04,-2.872530742440923286e-04,6.229284633751885035e-04,5.545685955520504042e-05,-6.881836857203784633e-04
-2.186197885998482121e-04,-4.284493952854644258e-04,4.680511122581684541e-04,5.435341066594035625e-04,2.026067942524284186e-05,-5.107490580907961828e-04,-4.199778163505453032e-04,7.206865451951219087e-04,3.868329002538841203e-04,-5.615692854651671735e-04
-3.173485495229115614e-04,-5.781573790267430842e-04,4.326342689337311248e-04,2.781156517265538576e-04,-5.436182229063620002e-05,-2.110115290873071587e-04,-3.634777171781079330e-04,9.645056827760380147e-04,5.398374874273578500e-04,-6.907360937579772476e-04
-2.536529298229052930e-04,-8.717354664855939692e-04,3.049192460970956767e-04,4.321059520804635778e-05,-3.804729300088544584e-04,4.429411551952872582e-04,-3.331118227647760443e-04,7.348372116934495657e-04,3.505824647955137620e-04,-3.751752390726116815e-05
3.944275880948272273e-05,-1.096026302019567720e-03,2.887208997965883266e-04,6.456388282927867357e-05,-2.122073214620139460e-04,3.159199585275750837e-04,-4.244242090215991970e-04,6.312310693575608200e-04,5.712760473800979023e-04,-1.784967841974049768e-04
1.092186929399529595e-04,-9.908430618346571184e-04,7.150204815796361085e-04,2.317374048444754422e-04,-5.376851512680372530e-04,3.313294079988567033e-04,-6.407163795031079172e-04,5.738515456513349931e-04,3.227532708661138314e-04,-1.146662112745683185e-04
5.063631123555359978e-05,-7.644556202784386773e-04,5.271512561631813872e-04,5.054713000873634320e-05,-6.697379948920587122e-04,5.434858376143655813e-04,-5.338555409217679527e-04,9.155079210534630739e-04,7.043038759866043080e-05,-1.897096875816918417e-04
2.085455738556359735e-04,-4.160908531471262778e-04,1.934223128591970511e-04,2.264456544088531476e-04,-9.648153615284031865e-04,1.746622704494345377e-04,-6.443570080050197400e-04,1.018959235368569740e-03,4.455849832337081102e-04,-2.423568074948532591e-04
1.650725965199441390e-04,-1.820820200625837787e-04,1.811448205754930246e-04,3.017409542495088867e-04,-9.465883333270953609e-04,-1.923532898854247801e-04,-7.614975033154077746e-04,5.395314654869675427e-04,4.131582296901046138e-04,4.818730800684944905e-04
4.580029521256666087e-04,-6.958704908713714266e-05,4.308510039229101725e-04,6.393379829795388250e-04,-1.606383577759463608e-03,-4.294148190367568516e-04,-8.487689368320389897e-04,6.961021922042685437e-04,-3.606282283097393768e-04,1.090488479792755356e-03
6.536758473940574221e-04,1.277986813690802086e-05,3.224280047577204053e-04,7.157860344575783318e-04,-1.666926519319779235e-03,-6.500243859856521004e-04,-1.036998410333270530e-03,1.040319754533871417e-03,-3.123953923272510154e-04,9.213551986858233315e-04
1.040634128249051920e-03,-3.593237685833976518e-04,-6.903449835246129441e-06,4.402381189048642758e-04,-1.316715910767507621e-03,-3.984339657499751737e-04,-1.237176464158764580e-03,1.086020041949178113e-03,1.886830339654507413e-04,5.629782360263436546e-04
9.349452255362377577e-04,-5.209625255459989082e-05,-9.458884338415828378e-05,4.526529954845656591e-04,-8.025241153074252724e-04,-2.089545262076573007e-04,-1.434085199974938175e-03,1.042463733157209188e-03,-4.593272116815477535e-05,2.081197044189166611e-04
7.386742607615449886e-04,-2.158765438531223314e-04,-2.543514614224595314e-04,6.115468477297575150e-04,-4.202764112544950031e-04,-8.485692258921135537e-05,-1.856850455810485226e-03,1.087691716736656575e-03,2.071154065799761057e-04,1.871835631218370024e-04
3.675491832892078680e-04,-2.527157397150381736e-04,1.680448127635792094e-04,4.940844323060082600e-04,-3.134230905178943521e-04,1.637158557087784534e-04,-1.681149529445119311e-03,6.775512753276775185e-04,3.980965489339576609e-04,-2.175374865115436515e-05
2.196564516003309279e-04,-4.059256964873471938e-04,4.204594151697504535e-06,5.973917567083202040e-04,-3.017334461085623013e-04,5.125645497091326722e-04,-1.297207074218102458e-03,5.603764779436217619e-04,1.506358744843117427e-04,-3.996348778340345507e-05
1.878357902661676566e-04,-5.452884969026511883e-04,-4.696968948966308082e-05,3.868687890587171386e-04,-9.496285066677157807e-05,5.497195194607906255e-04,-1.050930440548956306e-03,1.264658247208804581e-04,3.751335895754712223e-04,1.121279645260144290e-04
6.099918313814471334e-04,-6.576459616531385183e-04,-2.193177146243962671e-04,1.322234194777211652e-04,1.307392057451730921e-04,6.687390688611227589e-04,-1.011988781985736488e-03,2.193251312237891912e-04,6.982816025886802664e-04,-5.703478010146610872e-04
7.239942051019145584e-04,-8.124738064430728820e-04,-4.970708308775794761e-04,-8.322054536720017992e-04,2.827809920945023071e-04,1.955228547772301737e-03,-8.630079820331719572e-04,-3.781412364488779301e-05,8.929641228661347983e-04,-8.123956711641378741e-04
-8.129340970822884630e-05,-6.808657934913313510e-04,-6.405744348194890997e-04,-6.642802550406921814e-04,5.166255521134291206e-05,2.863449487894267637e-03,-5.620005137146500285e-04,-3.224039560230746392e-04,6.609087925449982524e-04,-6.246024728531337448e-04
-4.519803435727673966e-04,-2.916953257136511101e-04,-2.320981067609889377e-04,-1.806726136193282219e-04,-3.989307284818097778e-05,2.000345601349206703e-03,-3.067766350554210967e-04,-2.092954184801243541e-04,3.630087579003967975e-05,-3.242349610887864221e-04
-1.404174593245272734e-04,-3.022818572992132697e-05,-3.008312926677537066e-05,-1.781510829721331745e-05,-6.150888747008936830e-05,4.862712763222514097e-04,-1.277756463027408741e-04,-5.187553911664377718e-05,5.924277405152538373e-05,-8.581009486586522442e-05
-1.218907176846338121e-05,-4.307318414839428626e-06,-2.775599495415052623e-06,-4.767153699702107873e-07,-1.041413516005646027e-05,3.683213136915560067e-05,-1.868409826789784321e-05,-1.007765280961844703e-05,2.764494977468793870e-05,-5.552489857582694864e-06
-5.226039435244071411e-08,-4.161907829468096442e-08,-4.500883243184116202e-08,-2.871541225851360220e-07,-1.062056947315368748e-06,-1.410637204464234359e-07,-5.909531624152373782e-08,4.255427168512013026e-06,-1.706025904739803713e-07,-2.396566166370616660e-06
-1.134373348311143347e-06,-7.575787160509421885e-07,-1.842278793273663818e-06,-5.334316631774120125e-06,-1.581218733273496730e-05,-2.181114160355418284e-06,-6.450007034795930998e-07,7.537914637845864122e-05,-6.165437116586047529e-06,-4.150685957589269503e-05
-3.234100459336474262e-06,-3.163867412250099027e-06,-2.127776679893419842e-07,1.223978187570853174e-05,-2.962154233879716908e-05,-1.501652331405720332e-05,-1.004614464554492795e-05,2.080926492986101030e-04,-3.543051158227462135e-05,-1.236069637540689904e-04
-2.677107826654526130e-05,-1.140539927634481231e-05,7.287366473491335912e-05,2.259385305092237266e-04,-1.516481200934991327e-04,-2.275053909527236700e-04,-8.807977771672658481e-05,5.932948381033267176e-04,-6.782869821705809262e-05,-3.188685688245649079e-04
-1.746238719722004434e-04,-8.036351252343209054e-05,2.824809443008360855e-04,6.903394485138154889e-04,-1.607712865900039624e-04,-6.197771486955610306e-04,-1.229745166400157675e-04,7.772279282224667891e-04,7.132929703714008748e-06,-5.986709143196207060e-04
-2.181445250734591627e-04,-2.870295117261739736e-04,5.466233560735437929e-04,4.969616573885752989e-04,-6.606248004255380881e-05,-6.570162595215081917e-04,-3.730615437658661541e-04,6.736626506755526112e-04,3.148505097083584563e-04,-4.307838537164709013e-04
-2.678855448606929008e-04,-4.046271614680170309e-04,2.281158852970350691e-04,3.582205731705072815e-04,-2.735032867096751259e-04,-2.717269633556089557e-04,-4.227525335819442881e-04,4.306659535771100670e-04,5.614898899112787589e-04,6.200318802000595944e-05
-2.809217598562046528e-04,-4.774163921071468116e-04,4.593296677013189238e-05,1.846895577282559465e-04,-2.397277566507653084e-04,8.725128785478728356e-05,-1.852950696951521632e-04,3.056073189806949968e-04,5.762898526810653066e-04,-1.641000570566591724e-05
-2.311927639742408216e-04,-7.090449110405471845e-04,-7.602165813225759061e-05,-6.403582152192442787e-05,-2.575176918221600735e-04,6.122472535866896326e-04,-1.470346587135451511e-04,2.008428840511726390e-04,5.949524419287542708e-04,7.680492563805897774e-05
-8.467447275084854163e-06,-8.741894144735945938e-04,3.178778997299875546e-04,-2.750130087813686488e-04,-1.487095940018869457e-04,5.250219949301278407e-04,-4.592823584366971914e-04,1.738082107045117676e-04,6.798758609179173917e-04,6.907785668608780807e-05
1.270176638331332051e-04,-7.161960176762839376e-04,5.677793707536550171e-04,-5.948002657132757474e-04,-3.524379346470068032e-04,6.045876894070873701e-04,-5.414822117603029002e-04,1.146910964216580557e-04,5.224264221574975329e-04,2.684141872238363915e-04
-1.262087556290440585e-04,-3.947765092846347037e-04,3.161811159121968471e-04,-1.170604910446660339e-03,-3.915329410320366821e-04,1.176165482517280538e-03,-5.019631910802665369e-04,4.906118735580059431e-04,4.696157158710225041e-04,1.325121196141305522e-04
9.460580188221395673e-05,-2.576821789675763988e-04,1.775617979214499584e-04,-9.077676177653899205e-04,-3.353969622801992209e-04,7.283579848378948351e-04,-6.016833571221377351e-04,7.267689041949024686e-04,2.704424892922698107e-04,1.047931380065736959e-04
4.406244468109793032e-04,1.582533073517885147e-04,2.970212452019221493e-04,-2.460684849200473162e-04,-6.831851252489170310e-04,1.044623527786312623e-04,-8.052389152940227614e-04,4.982350131725955854e-04,3.063679328060395533e-05,2.052593668664692860e-04
2.608975887853377655e-04,7.665557272953705571e-04,5.272704828438168345e-04,7.000015591099532225e-04,-2.024452809005388657e-03,-5.529275550211120100e-04,-6.806042024672541348e-04,1.044973695571555904e-03,-6.800486564732841988e-04,6.383341693610027111e-04
7.559349141862205560e-05,1.203815217319315761e-03,5.926429170198849357e-04,1.138511467410346142e-03,-1.508519781480033078e-03,-1.097835425204714667e-03,-1.163231139035632647e-03,1.330867582359954865e-03,-1.236458290149388415e-03,6.646139603416450613e-04
5.159978395480507895e-04,4.372228578705980410e-04,4.188298188932979092e-04,8.808549409878610155e-04,-3.734890090223059751e-04,-1.170529378024614230e-03,-1.612692047320659966e-03,1.474596864150859053e-03,-5.741838882513827401e-04,3.392001168303599784e-06
8.260169850735958825e-04,1.992131182117943012e-05,2.302641276176625750e-04,5.835362741807840386e-04,-1.778859916110640078e-04,-8.109078085074631617e-04,-2.015415527296303844e-03,1.340052939553652758e-03,-3.835063177169717609e-05,4.276832093965099560e-05
8.674321195025146668e-04,-3.022124105373408297e-04,2.542458666908282115e-04,4.502097817531080202e-04,-4.624821463267215810e-05,-4.400211270286047784e-04,-1.999738801169689655e-03,1.018423097833180647e-03,1.503607465686339708e-05,1.828736129318107298e-04
6.608282570087671559e-04,-6.672858831412271322e-04,8.045212172905922751e-05,5.819675447163468645e-04,-6.975565948211195791e-05,-2.610895824963094811e-04,-1.673869275986527606e-03,9.486369740518264902e-04,4.551379382409414176e-04,-5.502243464076610966e-05
2.648022407958435681e-04,-8.606338023226225899e-04,-4.157828131558877151e-05,9.302043089439962671e-04,-1.519652632383633169e-04,9.180358084479409858e-05,-1.268844234256232559e-03,6.267514955272885172e-04,3.717345762465648715e-04,3.772537877431990822e-05
8.530391088311293460e-05,-9.381203380798348217e-04,-2.022764672700136563e-04,6.901567863861345249e-04,-1.361496604820250974e-04,7.276734342385926448e-04,-1.078889378367473830e-03,6.012099864129521977e-04,5.233273075970925172e-04,-2.722355813185391616e-04
5.188873682905551649e-04,-9.974035045565402165e-04,-1.574838082810137716e-04,2.836917974919311945e-04,-1.683061208212478202e-04,1.043811900121474059e-03,-1.113397032602989447e-03,3.395891565501003070e-04,7.812187193246761859e-04,-5.306084755169437591e-04
9.425261145297973838e-04,-9.074715344956020471e-04,-4.698036120013657376e-04,-5.456882347195280043e-04,-2.997386211221530821e-04,2.150697621450735949e-03,-8.108129358131721271e-04,-1.592342953194861917e-04,8.296728884643680968e-04,-7.301473909735944293e-04
2.182576855775630030e-04,-5.936449412955007972e-04,-5.845261145147885281e-04,-5.604304202029668225e-04,-5.828954483234440650e-04,3.369176684528468399e-03,-6.356343380969310328e-04,-2.946293422020724792e-04,2.324585348893637069e-04,-5.681323003596922515e-04
-4.418782883742682446e-04,-2.448563979751964734e-04,-1.997541582334604992e-04,-1.316162789273973279e-04,-3.695829039967582822e-04,2.373879503689465750e-03,-4.390424847015175856e-04,-1.558291907701228314e-04,-1.035045684863348468e-04,-2.878152322244121393e-04
-1.460535388850722456e-04,-2.913743175625357489e-05,-2.309688783952123562e-05,-1.902221307545627109e-05,-1.198039851741709659e-04,5.571902298711163331e-04,-1.682935320024759229e-04,-2.433610118789401362e-05,5.830087976337208446e-05,-8.574741971364325274e-05
-6.917771143164123753e-06,-3.183719372955815352e-06,-2.397338268925411251e-06,-9.428842558351348471e-07,-1.172783745105792200e-05,4.500886491032443849e-05,-1.084699658372382826e-05,2.814177717631842834e-05,-3.106504901493129580e-05,-6.069045996049450869e-06
-8.186694336937539106e-08,-5.103161422347326430e-08,-6.800561993568947835e-08,-4.161035113398616514e-07,-1.265072821686494529e-06,-1.889655584450963957e-07,-7.679596668557167640e-08,5.921575319420838284e-06,-2.262780833732720075e-07,-3.547455200362005399e-06
-1.754177998318496557e-06,1.873162186024778216e-06,-2.004324962238399267e-06,-6.189968797947815703e-06,-1.509966980123821496e-05,-3.066046933087149368e-06,-8.378990210461744140e-07,7.758321776294785713e-05,-4.185943556873363015e-06,-4.631834887822294805e-05
1.304484980956532056e-05,-2.476196425214538364e-06,-2.686123845789447405e-06,3.519498155463821809e-06,-8.286483341142054850e-05,-1.592752213556126342e-05,-2.451425554454377033e-05,2.988655886661875107e-04,-3.007882270104241855e-05,-1.568821825676440062e-04
-4.124075819191392694e-05,-3.385835684751360177e-05,7.659637358836553472e-05,2.749229547765845438e-04,-2.153283408546843034e-04,-1.778805310175005311e-04,-9.497438239836746303e-05,6.573839673478344215e-04,-1.112207281008410347e-04,-3.344001983019632800e-04
-1.693950563776902497e-04,-7.976176484143803792e-05,3.419897296827372553e-05,2.966432795143054990e-04,-2.291237110489317786e-04,-3.172477554647721134e-04,-1.790232147328112817e-04,8.933318016846141223e-04,2.182056931591171156e-04,-4.678282448606692237e-04
-1.728512677683122049e-04,-2.612188304191531652e-04,2.200184159949319354e-04,-2.314417028877036636e-05,-2.914356835297972608e-04,-2.901275664595291269e-04,-3.246171093662673706e-04,7.543921994852742161e-04,3.682266773522158013e-04,2.075733499940623434e-05
-2.434110747068139952e-04,-4.246754335993520161e-04,1.002579603290333079e-04,-2.043837494013919190e-04,-4.325535840526966856e-04,7.883772163930825069e-05,-2.760057223893752718e-04,2.599968741075059093e-04,6.320745797769380947e-04,5.098624282968432274e-04
-1.986924033051899318e-04,-4.820963316635123552e-04,-4.485686578874850412e-04,-5.387674207929987530e-04,-2.011057742377893114e-04,5.335640507714576111e-04,4.679299990018368329e-05,1.940984012060264336e-04,7.641668624450019586e-04,3.306082735643071967e-04
-1.513686478228264750e-04,-5.461076384719341708e-04,-4.181011119089754003e-04,-9.855666214492421126e-04,-1.612855047882527540e-05,8.916749425477998609e-04,8.414199306200992269e-05,-1.114247639212568414e-04,6.969876878801546790e-04,5.558927105630964228e-04
3.000092912298045478e-06,-6.903544712661463436e-04,-4.854427178537205770e-04,-1.408521281542687636e-03,4.091463807776925146e-04,1.153038761949790915e-03,-2.405735441252267572e-04,1.010016548001493820e-04,8.119300020597358322e-04,3.467751222881140013e-04
-2.490431788514109565e-04,-4.693530236636239477e-04,-4.856291145010768685e-04,-1.646005648832036140e-03,2.214124399001148025e-04,1.061343323480754518e-03,-1.334214064296814905e-04,1.561441154842730923e-04,9.809921823010147538e-04,5.635603111116732665e-04
-3.614335048342240208e-06,-2.697016198114656187e-04,-5.192075483194752645e-04,-1.752515749208166055e-03,2.044804578256940162e-04,1.202858303974452606e-03,-3.177009140908239999e-04,9.747394202687480723e-05,6.342859727270379723e-04,7.236414899242075592e-04
8.913929112429463540e-05,-8.710970168761911030e-05,-7.148794804550540755e-04,-1.409957470817310579e-03,4.829042768844916088e-04,1.251713833115173638e-03,-4.637095765271675063e-04,3.767349918986581138e-05,4.814356643633906367e-04,3.327896648099327461e-04
1.834808966970679148e-04,5.917692352254521997e-04,-9.462784040659603197e-04,-7.061377544846510711e-05,-8.239562661831547653e-04,8.990612454147758935e-04,-2.649910095588574603e-04,6.579319932045904571e-04,1.121406237425048782e-04,-3.385445390279529453e-04
-1.202355520102987347e-04,1.757223457757485377e-03,-4.059386081299164346e-04,7.403356365290263792e-04,-2.284088675356124847e-03,3.031428479700387559e-04,-7.235297402282930401e-04,1.086866741264816806e-03,-3.329848205536673129e-04,-2.079128724306135895e-05
-5.092360875042508490e-04,2.086419566245623688e-03,-2.818143805833439423e-04,8.888338104566226089e-04,-8.015512545903167750e-04,-3.830595632109260232e-04,-1.445453055700355108e-03,1.697234403324273007e-03,-1.055889277797338478e-03,-1.954841606399890773e-04
-3.024801709774058893e-04,8.230242671637709234e-04,1.531233322403631415e-05,8.119976883179338576e-04,7.810337359783189122e-05,-8.103746465808905983e-04,-1.648683126362906213e-03,2.042443109196253291e-03,-9.730417637479920516e-04,-3.630106383063919637e-05
4.774058497166894536e-04,6.518136314772084974e-05,2.098251310463537182e-04,6.849425237432832424e-04,2.751761946861005972e-04,-1.127143625400758463e-03,-1.654102464031025153e-03,1.461678177537938453e-03,-5.869217416089256506e-04,1.939585911626201737e-04
7.314332992889645713e-04,-5.478023933498978038e-04,1.699018034501548484e-04,6.410325433008494432e-04,-1.031852516905634059e-04,-9.780611298783321687e-04,-1.521240611431896742e-03,1.213641705314358029e-03,1.251079724488271723e-04,2.691720625475296324e-04
4.936161934426853710e-04,-7.390570223049950857e-04,-1.101603549966960261e-05,7.471524035337702603e-04,8.112653025257489985e-06,-8.469894612411797219e-04,-1.311602930506175187e-03,1.119574689709273551e-03,4.257485811749432301e-04,1.144609286660886751e-04
4.197395445551659076e-04,-9.899546975275267616e-04,-6.718997584222607294e-05,8.928514424260873637e-04,-3.956264478979137412e-04,-4.226099089191455742e-04,-9.686545026090560449e-04,1.078207753579868509e-03,2.265820906933729709e-04,2.266547015413718853e-04
3.415079993209922302e-04,-9.206098647043025945e-04,-1.669673191222695871e-04,4.312867754426076040e-04,-3.372419943147579222e-04,3.590754929505658210e-06,-8.414687396962053844e-04,9.752434632048564023e-04,4.081808190611582103e-04,1.064781058784156466e-04
7.858436049144496309e-04,-8.175044684647249501e-04,-1.894043589746937251e-04,2.787195222754123092e-05,-4.256735540354513077e-04,3.178067387345997639e-04,-7.286058642705679897e-04,5.200167053398476076e-04,6.578148615600439572e-04,-1.481656170310434353e-04
1.169946133079396728e-03,-6.761754521385600954e-04,-3.593202492235460384e-04,-3.424243936217148394e-04,-8.288110487242012587e-04,1.394599260945620419e-03,-3.765410790846908753e-04,-2.276098241750177927e-04,6.387248181756154932e-04,-3.923881652329027974e-04
4.748093821572349211e-04,-4.490966442010521057e-04,-3.780475895769423418e-04,-3.507855093570760993e-04,-6.596194374915868635e-04,2.641080999417345400e-03,-4.511634505463376819e-04,-2.965486175632453276e-04,-1.398585089357307862e-05,-5.166432819447625739e-04
-3.838029492805998012e-04,-1.415665247143622441e-04,-1.161632400641641371e-04,-7.043578294845308588e-05,-4.096059984570589538e-04,2.243609086999344502e-03,-4.773291243356739960e-04,-1.166506642194658496e-04,-2.864279883751357642e-04,-2.416268146044330825e-04
-1.475721669071813024e-04,-3.655314562352729571e-05,1.009639057501532788e-07,-1.106245944229938084e-05,-1.161304474889029759e-04,5.840385830544640245e-04,-1.541827587790293227e-04,-1.980286919220990049e-05,-2.972704325212094522e-05,-6.910865627494389705e-05
-1.854256424642261760e-06,1.274057667975871286e-07,-1.448892775103093605e-06,-3.025943448125398003e-07,-3.340075466247556125e-06,2.035053972144373918e-05,-2.149471435830327252e-05,4.034020920395739209e-06,1.367883477511146430e-05,-9.750267814639807166e-06
-9.254855512916850520e-08,-2.486226583877995749e-08,-5.309177053595850524e-08,-2.360751868311078951e-07,-2.546748353901921389e-07,-1.458387324131980709e-07,-4.057877686667144948e-08,2.943223433653478110e-06,-1.498928062592553333e-07,-1.945660504389142760e-06
3.819441261469400118e-06,3.577468478759262285e-07,-1.219083854610761775e-06,-5.770249721458640056e-06,-2.909827758029801936e-05,-8.050767186490048624e-06,-1.452812323429415853e-06,1.122984465550491110e-04,-4.621543896177959631e-06,-6.626290010192949741e-05
-1.017156508594267697e-05,-1.198165894635116920e-06,-6.846210186275888886e-06,2.243818223910211173e-06,-1.496811162269309173e-04,-2.197287788906041281e-05,-5.005699217786400855e-06,4.385004789471795843e-04,-2.298274328837844553e-05,-2.228859193820798847e-04
-4.830846801734393388e-05,-2.284398091532988340e-05,-3.672672917956105884e-05,1.940310826728744594e-04,-2.037724278814831609e-04,-1.601077607937576811e-04,-8.910590635214967186e-05,7.606737128985245145e-04,-6.595881527920357114e-05,-3.278807071525701822e-04
-2.967402179033833609e-04,-4.104063916418360276e-05,-1.775514598015955287e-04,5.454710587542301687e-05,-3.057089362317626561e-04,-1.268527164568930782e-04,-1.554625220187438341e-04,9.849870466582370549e-04,1.670643572121085509e-04,-1.032420181692073616e-04
-2.985503687779273775e-04,-1.514549719784638647e-04,-3.978769496580738282e-04,-5.111899042159260935e-04,-2.349523933912440554e-04,3.065894237496487752e-05,-1.112052233111025503e-04,5.635036003742582584e-04,4.926349889125560509e-04,6.184322796709604666e-04
-6.335070140703922897e-05,-3.430908074641562445e-04,-8.843936566991225179e-04,-8.960508407281548605e-04,-1.181275926658374161e-04,5.667236452882630244e-04,-1.671796633453835119e-05,1.841139976069553136e-04,7.006869233226577579e-04,8.702069990809738718e-04
4.634494679263346568e-05,-4.228897663780969659e-04,-1.325524112023104134e-03,-1.366714709403413393e-03,1.602801388189034788e-04,5.750608995575904854e-04,3.252071301719579484e-04,2.859774540396878761e-04,1.033173716921399928e-03,6.890843015024409246e-04
-2.954076786140119411e-05,-5.134829456718698060e-04,-1.443936126718147091e-03,-1.568968123200318449e-03,5.588794740789242025e-04,7.355550600188499573e-04,1.807442663596723991e-04,8.698291847185560667e-05,9.473208556706790365e-04,1.046445388851752027e-03
-2.345877736413747808e-04,-6.741643106823539669e-04,-1.578003349586821862e-03,-1.380141513665794238e-03,9.607777338494694801e-04,6.088187234847425040e-04,2.889833208884033948e-04,3.654699747775981512e-04,9.349165982861906005e-04,7.079305962899410960e-04
-1.941905762452659232e-04,-6.305619444712442373e-04,-1.938311323411026762e-03,-1.155315911313138091e-03,1.043869952533641593e-03,6.693694799364252991e-04,1.514084449907448116e-04,4.767139629469816756e-04,6.886607258934896413e-04,8.883571891393856777e-04
-4.399212592375031054e-05,-6.752655451131491524e-04,-1.937131229503671632e-03,-7.577795011356385033e-04,9.504117566219109220e-04,9.275120249237332358e-04,-2.810112646530235259e-05,3.057887147817754691e-04,4.191371446256419563e-04,8.394198871884533389e-04
-1.532633490140277745e-04,-3.324296977748348453e-04,-2.161501725122292640e-03,-3.902500389401804249e-04,9.783958507424835808e-04,1.278706338624065316e-03,2.187695662344549730e-04,-3.340749888598539322e-05,6.401815053715835318e-04,-4.520095123526828918e-05
-2.091065292222635057e-04,7.917982639612568480e-04,-2.355065205805597327e-03,3.433309061133394519e-04,-1.262110907419288896e-03,1.571619826409731240e-03,2.214116314862136332e-04,2.132914403027735448e-04,9.951160894540527716e-04,-3.102855152802247809e-04
-1.054088951198589195e-03,2.421501828171311425e-03,-1.720451752141941406e-03,8.001059818578251442e-04,-2.009659533393691640e-03,5.087582405737075446e-04,-7.440950954992893137e-04,8.065686341519533002e-04,9.743633611173684386e-04,1.699728636134767976e-05
-1.651597718594800509e-03,2.337612309251638817e-03,-1.124901442240362152e-03,6.792782448396508972e-04,-4.277389613424937187e-05,-3.286728507819775425e-04,-1.585069578718750587e-03,1.548771748783255237e-03,-1.937552187150786722e-04,3.611084023106697085e-04
-1.516905617536796038e-03,7.390904689077127613e-04,-5.623261073295977202e-04,2.679391565778913020e-04,1.029288707945214118e-03,-5.804822463897161416e-04,-1.123046452902757772e-03,1.777620353567282161e-03,-6.892871401534346638e-04,6.581088773142004756e-04
-4.681627275642014259e-04,-1.407298239099024891e-04,-6.768748447084423515e-04,6.445729674404653518e-04,4.792447585046099592e-04,-8.261297409894360335e-04,-1.033715487195977075e-03,1.485780370885932122e-03,-5.688076936382068264e-04,1.104822221175158145e-03
6.091681508934896411e-06,-3.192481085407650296e-04,-3.184784690348612117e-04,5.836927520963861677e-04,-1.663312093240516397e-04,-9.535521928693661831e-04,-8.713709333153139228e-04,1.424090487414027793e-03,-2.138139480962463217e-04,8.289199401612538714e-04
3.835120604451789966e-04,-6.480433926366606541e-04,2.062880921340538593e-04,6.590279990525128818e-04,-1.643514195598786733e-04,-1.451630494189448239e-03,-6.900220135835905119e-04,7.984418569147637510e-04,6.985801714340629054e-05,8.369192942796643180e-04
4.805076839013750650e-04,-6.960560695763559798e-04,-1.368075881983603999e-04,5.883095976762905879e-04,-4.746899694490482545e-04,-1.824138696920956379e-03,-4.535819023489096697e-04,8.501517207579508805e-04,2.872325870985714224e-04,1.379072637059442809e-03
6.752735219171334237e-04,-5.672558442468096304e-04,-1.277146254453664139e-04,-2.286941807255928462e-04,-4.090550270418264259e-04,-1.609698108862520462e-03,-2.169329284485807082e-05,7.667726380458089871e-04,5.110520456556407387e-04,1.011012873548393712e-03
9.497572469290893387e-04,-4.294558178782363557e-04,-2.912019216124591922e-04,-3.312593392710853814e-04,-5.033216689477119357e-04,-1.473581543940668181e-03,1.771548625633167303e-04,4.351798073118471493e-04,9.774096768681843784e-04,4.893186979777248589e-04
1.177319785552766737e-03,-3.106340429199705910e-04,-3.596180510626271337e-04,-3.803943677357107963e-04,-7.441102973262963714e-04,-4.891376925534325192e-04,4.917260959634689975e-04,-1.774997544198733223e-04,9.085817123033662407e-04,-1.162333878016919735e-04
6.852041968199945685e-04,-2.135402997721952314e-04,-1.703945729810702055e-04,-2.522158496110193113e-04,-5.432690482968361269e-04,5.522542300054991997e-04,-5.134071086977934520e-07,-2.635824633541675871e-04,5.589088840322837875e-04,-3.528516697337909409e-04
-1.975857950870198089e-04,-7.821862492485462360e-05,7.636143201932474290e-05,-2.305607075993065428e-05,-2.446289663247532237e-04,1.032807435434403981e-03,-3.544141662582023537e-04,-8.879831028822134488e-05,4.848568598335794118e-05,-1.709526197941025553e-04
-8.479574107571277600e-05,-2.528874776437893952e-05,1.324543802532161379e-05,-5.202876605761788749e-06,-3.467757854220522519e-05,2.881435150861911296e-04,-1.711207970940381009e-04,-2.681625331596710534e-05,9.664373558462663295e-05,-5.013069429807531351e-05
-1.207258509672132307e-06,2.558483172217579990e-06,-4.213446847575850873e-07,-1.395464731698015644e-07,-1.686268768184305531e-06,1.097578610488854138e-05,-1.207337376314068636e-05,-2.685870515912550804e-06,9.036979654825312623e-06,-4.357586217094383062e-06
-2.349967180247485153e-08,-8.562318054503016219e-09,-2.428388366414872030e-08,-7.296930233780540171e-08,-4.429431512092366492e-08,-3.644142844093394527e-08,-1.273391381097124295e-08,2.553325553111858347e-06,-6.382479000126445806e-08,-2.266715929878832589e-06
-6.417437306510440873e-07,-2.807739984175363576e-07,-4.674427336537331166e-07,-6.625288344952745178e-06,-3.624137831794685578e-05,-8.976661882394038422e-06,-1.227007025757264854e-06,1.093160769345987961e-04,-2.861448032566020024e-06,-5.199433286825957132e-05
-7.910351779271469180e-06,-2.014642571286835110e-06,-2.469609055919366553e-06,-2.083561857859812330e-05,-1.282964800214854710e-04,-1.849322006399205077e-05,-3.821035251940386566e-06,4.009733637374814845e-04,-1.461847825419662598e-05,-2.025139281607910946e-04
-5.808081683563370498e-05,-3.616685580289837127e-06,-1.290259967532155611e-04,-2.489261918384880508e-06,-2.423624937129005943e-04,-6.771447183288039305e-05,-7.168893890838717701e-05,7.905507042945856492e-04,1.153418954476891513e-05,-2.271062282976631943e-04
-3.050214935716376546e-04,-2.913589612666738544e-06,-3.943476111185485310e-04,-1.801277525374846979e-04,-3.565843924754818692e-04,2.915567845371041912e-05,-1.867314081102170462e-04,9.263311669956416717e-04,7.673374481877616590e-05,3.935056571579068074e-04
-1.404989609111458417e-04,-1.065632420950103962e-04,-1.133136247191312207e-03,-6.768528476977555544e-04,-1.090532588548796572e-04,2.426793036900083472e-04,1.395176331970609557e-05,4.986737640041298590e-04,4.155262585212614649e-04,9.952734672150000562e-04
2.917666320964031035e-04,-1.713768802586189193e-04,-1.986833541058688219e-03,-1.136430972263421805e-03,3.356005683142106589e-04,7.155841159220987548e-04,3.790969134435323920e-04,9.886078045080997495e-05,4.060704616449706977e-04,1.067661921708701897e-03
2.369618577270292100e-04,-2.236403317649538814e-04,-2.304997905706687202e-03,-1.318746654586998301e-03,8.623495986862547528e-04,5.896591116365232409e-04,5.332497483102752525e-04,4.079270073460163591e-04,5.235997475625397838e-04,6.936378207900005142e-04
-7.689037802973469664e-06,-3.971395998591747772e-04,-1.837663918153897326e-03,-1.184171245654893701e-03,1.132111665222954077e-03,3.882255222817655423e-04,3.967463748679347208e-04,5.327961067050742327e-04,2.365519382447496262e-04,7.402321941484574664e-04
-7.984090799547624616e-05,-5.747818656494080693e-04,-1.803713865625848102e-03,-5.693145585637812917e-04,1.048344229484860684e-03,1.067168545494754251e-04,4.777100522163253986e-04,1.263955796392970488e-04,3.607226112206723891e-04,9.077618707238791591e-04
4.809912480536360251e-05,-9.957922719066312264e-04,-1.899814204568668098e-03,-5.736599912532581910e-05,1.471396123324542884e-03,7.643102684310168135e-04,2.307362262681542456e-04,-1.570281020252703680e-04,-1.930022281218402990e-04,7.884610629186576550e-04
8.445240581076938482e-05,-1.278912798040721501e-03,-1.837295146078992292e-03,-2.039101363356458614e-04,1.910849534844305617e-03,1.260730227936317444e-03,5.738373660804529540e-04,-6.121581336771165930e-04,-1.705533737762444848e-04,2.729600532368691660e-04
1.838664464041426594e-04,-5.012233324313235391e-04,-1.905950136577962487e-03,1.938485336328051988e-04,1.658998329107414784e-03,1.455278134079679604e-03,6.557885253682165178e-04,-1.578769938111966413e-03,4.361859212073935285e-04,-5.980224826784034595e-04
-4.632520408943425886e-04,9.872271600803780162e-04,-1.786294495953986115e-03,5.595739776304125548e-04,-3.993391135929921288e-04,1.340240206730840050e-03,2.912143397246708468e-04,-1.838701408269686382e-03,1.294374301339480541e-03,1.495707320522460647e-05
-1.703576250171450011e-03,2.960521699250777319e-03,-1.478596242818833390e-03,1.089645609693348305e-03,-1.128900717299648237e-03,1.229481464048146251e-04,-8.008377871612833024e-04,-6.665343404015602229e-04,8.556329693917222182e-04,7.496969131121141317e-04
-2.228576298996902232e-03,2.079642866646410054e-03,-1.331059165726879590e-03,5.176179437376875539e-04,5.100542637568061290e-04,-5.312485862418821940e-04,-9.372036640292550356e-04,8.111970207132496299e-04,1.804098242854900705e-04,9.291657958552713590e-04
-2.002451715187641024e-03,4.414113041650937798e-04,-1.013636865657625927e-03,3.509763045026057155e-04,1.263378554486098426e-03,-1.210081524376260299e-03,-3.297377097623992756e-04,1.502372606756621591e-03,-4.800341537283190203e-05,1.045772460446340929e-03
-8.843677404763295022e-04,3.126168406604048442e-05,-8.979443880662832302e-04,3.702836443088680369e-04,4.682676450283932410e-04,-1.112384537963170871e-03,-3.685394071756145445e-04,1.281692647779688037e-03,-1.792314766544492741e-04,1.290961929152858578e-03
-1.827696791239171749e-04,-3.321620355448142662e-04,-4.721117057228791628e-04,4.682772132167841968e-04,6.688612368386960669e-05,-9.785065932279559883e-04,-5.097622362889980005e-04,9.320572433986122705e-04,-1.619706620192790732e-04,1.170062331628576304e-03
1.088064654954912078e-04,-6.565591241760340658e-04,1.873747224655160945e-04,-2.190336659508468578e-05,1.671628098473912382e-04,-1.201312206072932109e-03,-6.371743004892265003e-04,2.545330509037677840e-04,3.829219159535064438e-04,1.416150032667604650e-03
1.383236005291216394e-04,-4.983106043171672351e-04,-7.452293855796058718e-05,-4.064450238839743498e-04,1.030835003232124006e-04,-1.578372264114728547e-03,-2.146935806076501598e-04,4.132212591542763465e-04,6.796512747060856532e-04,1.438064776768785543e-03
5.134247289913341583e-04,-3.117830518065124149e-04,-1.451884119364796441e-04,-9.348539857695947796e-04,1.768958518942366780e-04,-2.116093836044064154e-03,3.530477046649401103e-04,2.365694183145964811e-04,9.971328500473729522e-04,1.230848731644171995e-03
1.127562388243334105e-03,-2.336393074443224457e-04,-4.596466234309895820e-04,-7.031561022534166998e-04,-1.125303227999497154e-04,-2.291553994267192876e-03,8.733904633322584496e-04,1.839638561640884239e-04,9.482912124821309347e-04,6.673184299740575216e-04
1.310888298196770298e-03,-1.455905382777642333e-04,-6.269787296764212136e-04,-4.504935070522927834e-04,-4.127850893782774970e-04,-1.835096025797218998e-03,1.220448469273558876e-03,-1.179026170898256196e-04,9.079994889376288196e-04,1.495102508638413070e-04
9.244412405469733121e-04,-1.065200096824500220e-04,2.586216948782802836e-07,-1.788415138457862647e-04,-2.161850706533385445e-04,-1.058955968285103019e-03,5.485332594255143022e-04,-1.741877404693553644e-04,5.909069722373350023e-04,-3.294497909686688679e-04
-3.867505481683292696e-06,-4.787191190918684420e-05,3.012135916763282028e-04,3.873177958134181257e-07,-7.624649744917286545e-05,3.311842498489108669e-05,-1.973266271162069736e-04,1.531833959085903899e-05,1.368219912901964092e-04,-1.615471233818386036e-04
-3.774509802572433644e-05,-1.789093461387932372e-05,1.532176932766336991e-04,-1.385103889013970863e-06,-3.594391470970797277e-05,1.020752531362151966e-04,-1.674986502105492491e-04,1.830061674946161881e-05,3.743413173989937245e-05,-5.056399345333486574e-05
-4.227638073036892117e-07,1.803277217012804175e-06,1.316846429098940993e-05,-2.292133284823707062e-07,-7.080747888571485395e-06,-1.699383994540150102e-06,-8.448599745781965693e-06,1.068279641396015254e-05,-5.528080088485611018e-06,-2.245749068797122441e-06
-1.856579602016612246e-09,1.374718559305561449e-07,-1.743238939155356471e-08,-3.459819315887546372e-08,-3.095429930910540803e-09,-6.159756648949413210e-09,-8.281849614070202604e-09,-1.332784870057111697e-08,-2.890034113789172963e-08,-2.381946774571738400e-08
9.563379352936550196e-07,-8.628565251531260133e-08,-4.811459707605131205e-07,-5.022045637979955078e-06,-2.341435658254049603e-05,-2.452131438129629184e-06,-1.069354131166212461e-06,5.756798564698931912e-05,-7.056659363470294714e-07,-2.529333823284391028e-05
-4.531360005448235447e-06,-9.533285698310785766e-07,-1.306479767069353243e-06,-1.458917933091117472e-05,-8.430780095184341443e-05,-8.119123648565436133e-06,-1.924126054256982799e-06,2.580070684055475955e-04,-5.629287157946211547e-06,-1.366463829196754660e-04
-5.365256596250829793e-05,4.654665966949843352e-06,-1.215589020941246776e-04,-2.111925005011691960e-05,-1.761100362243369992e-04,-7.845981986618241316e-06,-7.050233795417881234e-05,5.232638868962400909e-04,-1.251609916277391626e-06,-7.587786867502881931e-05
-1.992255929486142852e-04,2.421264449508237247e-06,-6.279811717061860570e-04,-2.692519528393116034e-04,-7.576308387595496845e-05,1.257771874544254753e-04,-2.075810359867604502e-04,6.328759600514251597e-04,-1.097568974468144651e-04,7.284853228482839841e-04
4.384485108933290940e-05,-8.182079673471190958e-05,-1.552604131919970570e-03,-6.592860920991407353e-04,3.862313011245054940e-04,3.513746220944651889e-04,1.989332230120648842e-04,3.533018567280439602e-04,-6.480280071284053522e-05,1.024827967418252134e-03
5.636222547826148788e-04,-1.462447493838546302e-04,-2.168507658950403431e-03,-1.021962358452379498e-03,9.832716342563860984e-04,3.451943475765440459e-04,6.648948447664445888e-04,1.402383552410898756e-04,-1.183791742579091814e-04,7.578725044214664397e-04
6.033513333519307121e-04,-2.579605645028400381e-04,-2.008262032643136699e-03,-1.146617603154212071e-03,1.190216434563247600e-03,5.948807580463242759e-04,4.136245541224176786e-04,8.071219686293024987e-05,-1.448522639451880274e-04,6.749071872985300735e-04
3.159399910328717590e-04,-3.058994775658505734e-04,-1.403572781991306194e-03,-7.696123095448321799e-04,1.174959551873728733e-03,2.913636931473771101e-04,4.236279087421020097e-04,-7.677962865124839911e-05,-2.805624128087459961e-04,6.305354657659100999e-04
2.432632741720582850e-04,-7.170161741365387465e-04,-1.086843505241184057e-03,-3.498290126660326253e-04,1.110489666847227922e-03,3.884590199236524787e-04,4.478892759884699052e-04,-2.907658079119926353e-04,-1.351666635239737613e-04,3.895199265483122587e-04
4.130594857798582510e-04,-1.519142459767788313e-03,-7.375706279193163699e-04,-5.098821087280918729e-04,1.580479053078290763e-03,1.029649016532461700e-03,5.703446030037981253e-04,-5.955098118929393058e-04,-5.461388932121519690e-04,3.147117431258793707e-04
3.556328569380520256e-04,-1.760352360809926174e-03,-3.735282197791190361e-04,-5.230431246357975048e-04,2.177904369875959326e-03,1.302051373251565322e-03,6.142071507158312774e-04,-1.703020134575631639e-03,1.227463263880632983e-04,-2.125982373689914735e-04
1.110082420519779535e-04,-7.074123725438160367e-04,-4.033842037713661127e-04,1.989898057947629749e-04,1.317743335855045507e-03,1.382745351278736462e-03,5.928222213515499470e-04,-2.805054736127893418e-03,8.272163269813861703e-04,-5.146739708703874450e-04
-1.130393759629653170e-03,1.286736519685679602e-03,-1.311318188281815984e-04,8.841399781690482962e-04,-3.528412554454159644e-04,8.967050641157828066e-04,-4.412808441295072503e-05,-2.848442499695438314e-03,1.141653307174152936e-03,2.977025488669728711e-04
-2.039901037192153217e-03,2.723412256597400587e-03,-3.463199699580729964e-04,7.083042535146344019e-04,-4.122609356656968451e-04,5.897259765426544350e-05,-4.800425744873785356e-04,-1.183914326977520901e-03,1.669450197330592299e-04,8.048047167814632863e-04
-2.392669184685732031e-03,1.755731007890218602e-03,-8.870494424830842415e-04,-4.644052466309212213e-05,7.075686174868753243e-04,-9.266471002516915578e-04,7.091837154105160143e-05,1.600132754539388476e-04,6.569413278751964728e-04,9.016336518363144087e-04
-2.024486602617666959e-03,4.142006535477804944e-04,-8.493475109799871348e-04,2.694479030131558114e-04,1.101054552790149991e-03,-1.498557950647192447e-03,1.207980153391067797e-04,7.679623220810149250e-04,3.188681109635519155e-04,1.380060506510095162e-03
-9.738770083190625071e-04,-6.359213067869668823e-05,-5.270595897338930906e-04,3.511444551046523799e-04,1.100022067973482074e-03,-8.958113647740145345e-04,-3.740722742130298114e-04,5.682429139404811822e-04,-4.062931130034368567e-04,1.221296043703511917e-03
-3.009729534232997734e-04,-8.171940071180898999e-04,-3.832642470699067108e-04,3.896874187231586829e-04,7.547253328524962520e-04,-5.195101651182912643e-04,-5.179691883314906618e-04,4.220341898990479890e-04,-5.487998941198718932e-05,1.027343608998357609e-03
-2.941219307456399007e-04,-7.676450032817958014e-04,-2.252393568086144364e-04,-4.045998322789125701e-04,6.021053048279019840e-04,-3.284533057271660033e-04,-2.343643506927401549e-04,2.304318679346807402e-04,1.027609466059791068e-04,1.319125660166304420e-03
-3.925899033501190918e-04,-5.028685085927186776e-04,-2.310839885965743231e-04,-9.050095011292506398e-04,7.841430234514056973e-04,-5.010694513108045201e-04,-1.170305410826925224e-04,4.158513311768738613e-04,3.287190548296512306e-04,1.120938484604233404e-03
2.963278944283006134e-04,-3.325062687139369974e-04,-2.102601017721837347e-04,-9.312210119520232272e-04,4.989828808651729317e-04,-1.056612268817879591e-03,5.373473309696980222e-04,2.383998335670630634e-04,3.850423164735775186e-05,9.210374797784276913e-04
1.007316033070150205e-03,-2.576024468052033004e-04,-4.397324942933162088e-04,-8.474201486633243683e-04,2.066356161104799789e-04,-1.343669665616673567e-03,1.136503106006641695e-03,1.386128164330047868e-04,2.039027287461143436e-04,1.954544550121229123e-04
1.305949652984167431e-03,-2.081280828170863561e-04,-3.804232252096177323e-04,-4.615170591532534688e-04,-1.476966099723825030e-04,-1.466320160367412181e-03,1.548069382416484121e-03,1.754753569403826155e-05,1.892410323394431212e-04,-3.967224659143737736e-04
8.698722914078686969e-04,-1.535342067359724819e-04,2.880463455731481948e-04,-1.726261703082372092e-04,-2.340969164415445758e-04,-9.512395695403420707e-04,8.111626059859904829e-04,1.363573138833807763e-05,5.027443706239143268e-05,-5.214945483916393412e-04
7.443727803471835531e-05,-6.778670367224397253e-05,5.407341878565856104e-04,-1.767309689149492398e-05,-3.571310244186455654e-05,-1.588392696414682806e-04,-1.732362661080039383e-04,4.148785969248291674e-05,1.324859565429731893e-05,-2.166594824830096950e-04
-1.258814684608402960e-05,-2.489250530119448360e-05,3.261725856352523764e-04,-2.491044241147788008e-06,-2.823347548357869045e-05,6.473493010045531614e-07,-1.822236991858631442e-04,2.393798412951163384e-06,-2.167389874867587494e-05,-5.711096354266463555e-05
